{"schema_version":"1.0.0","model_name":"unshrimp_posture_nn","labels":["good_posture","shrimp_slouch","forward_lean","looking_down"],"feature_columns":["nose_x","nose_y","nose_z","nose_v","left_eye_inner_x","left_eye_inner_y","left_eye_inner_z","left_eye_inner_v","left_eye_x","left_eye_y","left_eye_z","left_eye_v","left_eye_outer_x","left_eye_outer_y","left_eye_outer_z","left_eye_outer_v","right_eye_inner_x","right_eye_inner_y","right_eye_inner_z","right_eye_inner_v","right_eye_x","right_eye_y","right_eye_z","right_eye_v","right_eye_outer_x","right_eye_outer_y","right_eye_outer_z","right_eye_outer_v","left_ear_x","left_ear_y","left_ear_z","left_ear_v","right_ear_x","right_ear_y","right_ear_z","right_ear_v","mouth_left_x","mouth_left_y","mouth_left_z","mouth_left_v","mouth_right_x","mouth_right_y","mouth_right_z","mouth_right_v","left_shoulder_x","left_shoulder_y","left_shoulder_z","left_shoulder_v","right_shoulder_x","right_shoulder_y","right_shoulder_z","right_shoulder_v","shoulder_slope","head_center_x","head_center_y","head_center_z","shoulder_midpoint_x","shoulder_midpoint_y","shoulder_midpoint_z","head_to_shoulder_x_offset","head_to_shoulder_y_offset","head_to_shoulder_z_offset","nose_to_shoulder_y_offset","nose_to_shoulder_z_offset","face_tilt_proxy","head_drop_proxy","side_lean_proxy","upper_body_confidence"],"scaler":{"mean":[-0.024106366878845206,-0.9014038303552918,-3.4053022713048913,0.9993616348729214,0.04225981747973508,-1.094037141960148,-3.258244996018292,0.9991777439525619,0.08623209603652648,-1.0940412984902448,-3.257938196686919,0.9992251003066853,0.12580566110763453,-1.0947084355466405,-3.2570104670895677,0.9990784583079366,-0.0904351701149156,-1.091278318446202,-3.2699341494131025,0.9992238999031552,-0.13485154150620252,-1.089251640618775,-3.270478928908609,0.9992359451437429,-0.17324889202187885,-1.086614590568224,-3.270119460408326,0.9991105892701526,0.18677230388042065,-1.030862449990868,-2.2095196561358783,0.9989961329678463,-0.2190226728021712,-1.01835604120244,-2.2681931563001974,0.9992850226109748,0.06262380748359975,-0.7132770199042983,-2.9908199934953226,0.9993579322339341,-0.09974277435222621,-0.7131085170815843,-3.0110774321237583,0.9993213155003683,0.4990576568473947,-0.01498024359283748,-1.4812454851646213,0.995034187259068,-0.4991789558267006,0.015229860580287575,-1.6012843664730725,0.9941975225038565,0.03021010417623146,-0.016125184479379544,-1.0246092465098575,-2.2388564067591954,-6.064960321119848e-05,0.0001248084881027104,-1.5412649265870975,-0.0160645348667838,-1.024734055012194,-0.6975914798918555,-0.9015286391257911,-1.8640373428044152,0.004789658284208857,-0.9015286391257911,0.04811144365323908,0.998508114295247],"scale":[0.03995269941558592,0.2462225264279978,0.7464657193280512,0.0005831479779185161,0.040538578736402715,0.2315837034659422,0.7719321325287475,0.0006509763040413439,0.03886772246266493,0.2256261467641458,0.7719570773366745,0.0006203200174272959,0.038732587316513065,0.21876984386538414,0.7719350579709264,0.0007162558195610394,0.03875428222651252,0.23175346311704237,0.7760145022823942,0.0006321137739704152,0.03556207449934049,0.22513311001140485,0.7766001374513593,0.0006539441401996945,0.032751329985093634,0.21693499645425587,0.7766792992480854,0.000742102718062212,0.03429901083286812,0.17003742119401474,0.7545012236515514,0.0008181162417663936,0.028741496903790957,0.16486447622789327,0.7749272582833049,0.0006096082007167158,0.03392052433309893,0.22530999467436977,0.7212107942937687,0.0007099927950028628,0.030868848590199664,0.22725046342194885,0.727693912477839,0.0007624409196360974,0.00568396640489332,0.02511258858677784,0.585082227027942,0.0058597335935088365,0.005586241272080493,0.025199998755522153,0.5948263055043893,0.007920036426773407,0.04968525712930169,0.023879239380522534,0.16682698508640403,0.763606786563876,0.003851665098982496,0.003960407380540007,0.5847307891061695,0.024164301796292444,0.16691232256407096,0.1900227068240123,0.24629961545923304,0.19212492915313142,0.01813151778809103,0.24629961545923304,0.032658293892130735,0.001459992336581941]},"layers":[{"activation":"relu","weights":[[-0.09385581314563751,0.058268267661333084,0.003506668610498309,0.2771605849266052,-0.05344676971435547,-0.19560962915420532,-0.08984436094760895,-0.011557422578334808,0.10583146661520004,0.16172747313976288,0.08088130503892899,0.17203651368618011,0.14069285988807678,-0.1230047270655632,-0.013269709423184395,0.1018582135438919,0.11036423593759537,0.02962062507867813,0.1633216142654419,-0.13814061880111694,0.08829589933156967,-0.13417531549930573,-0.0967981368303299,0.13851025700569153,0.0034779810812324286,0.082205630838871,0.20202681422233582,-0.07232779264450073,-0.14608877897262573,-0.11169283092021942,0.25857892632484436,0.07192545384168625,0.10051688551902771,-0.1767357438802719,-0.14985878765583038,0.07402970641851425,-0.11543384194374084,0.03867485746741295,0.07314999401569366,-0.09409337490797043,-0.10667270421981812,-0.15971650183200836,0.18322117626667023,-0.03154471889138222,0.006553030572831631,-0.025680597871541977,0.11107742786407471,-0.12796859443187714,-0.16492334008216858,-0.12050563097000122,-0.2014199197292328,0.04228431358933449,-0.041761621832847595,0.11983077973127365,0.06675893068313599,-0.1394655853509903,0.11215125769376755,0.2137204110622406,-0.14801445603370667,-0.003361094044521451,0.013868935406208038,-0.0685981810092926,0.001973886741325259,0.11962717771530151,0.15163104236125946,0.09925159811973572,-0.06619200110435486,0.21840572357177734,-0.09406905621290207,0.051374271512031555,-0.011607500724494457,-0.0025918148458003998,-0.03868129476904869,-0.1719980388879776,-0.09744744002819061,-0.19369639456272125,0.10894656181335449,0.17563937604427338,-0.06366806477308273,-0.04313564673066139,0.07985144853591919,-0.18641789257526398,0.09542782604694366,0.1798943728208542,-0.2316708266735077,-0.15035615861415863,-0.052872609347105026,-0.03293051943182945,0.005391425918787718,0.08084726333618164,-0.14894787967205048,-0.04717956483364105,-0.17107032239437103,0.04747225344181061,0.10045980662107468,-0.013853708282113075,-0.003377876477316022,-0.012866047210991383,-0.12219206988811493,-0.13918423652648926],[-0.12235185503959656,0.18893642723560333,0.06872487813234329,0.16354697942733765,0.07911977171897888,0.17033065855503082,-0.11608520150184631,0.013454572297632694,0.22183585166931152,0.052045419812202454,-0.07930604368448257,0.04960446432232857,-0.10073336213827133,-0.1331067979335785,0.16797859966754913,0.11361216753721237,0.09120216965675354,-0.1042662039399147,0.1291622817516327,0.12871795892715454,0.15263201296329498,-0.07694905251264572,-0.04674650728702545,-0.015597706660628319,0.12229634821414948,0.04369037225842476,-0.17127424478530884,-0.07169844955205917,-0.06940034031867981,0.15067216753959656,-0.01924177072942257,-0.10318298637866974,0.13362635672092438,-0.023659346625208855,0.1957138329744339,-0.23401214182376862,-0.10267355293035507,0.07734577357769012,-0.15413056313991547,-0.04868445545434952,0.2138042151927948,-0.054040104150772095,-0.05676064267754555,0.12182921916246414,0.09883526712656021,-0.12769807875156403,0.11701839417219162,-0.03108118288218975,-0.051792390644550323,0.041915182024240494,-0.043055132031440735,-0.07377027720212936,-0.11471980065107346,0.05534776300191879,0.08845589309930801,0.006881934590637684,0.06886927783489227,0.14457735419273376,0.028650978580117226,-0.2690925896167755,0.1983407586812973,0.10623904317617416,-0.03182879462838173,0.21334919333457947,0.06766638159751892,0.0975571796298027,0.0814916342496872,-0.19455255568027496,0.0636356845498085,0.12486624717712402,0.16399358212947845,-0.06394486874341965,0.17784450948238373,-0.08038540184497833,0.1443023681640625,-0.00797049980610609,0.028056137263774872,0.1651819348335266,-0.15664686262607574,-0.04982513189315796,-0.08863311260938644,0.08955099433660507,-0.007911903783679008,-0.04555714875459671,-0.11575545370578766,0.21553847193717957,-0.1672404557466507,0.21576038002967834,-0.017687929794192314,-0.11753776669502258,0.030332397669553757,-0.09854874759912491,0.09498612582683563,0.0258232019841671,0.092514768242836,0.08879563957452774,0.07614247500896454,0.13179266452789307,0.061866745352745056,0.11594440042972565],[-0.13153056800365448,0.1534496545791626,-0.06683340668678284,0.012256767600774765,-0.024871697649359703,-0.17288510501384735,0.11113583296537399,0.02276635356247425,-0.09918343275785446,-0.05486534908413887,0.10028363019227982,-0.19012734293937683,0.18257935345172882,-0.14476564526557922,-0.1662173718214035,0.01798003725707531,0.01088815089315176,-0.016746435314416885,0.030945787206292152,-0.07834618538618088,0.00865095667541027,-0.05559496581554413,-0.06255241483449936,0.11710555106401443,0.17255866527557373,0.05006364732980728,0.015767596662044525,0.1439027488231659,-0.011477249674499035,0.000245532370172441,0.08064743131399155,0.18836115300655365,-0.12082884460687637,-0.05064987391233444,0.050149861723184586,0.013476437889039516,0.049147941172122955,-0.07008688151836395,0.03531649708747864,0.07965532690286636,-0.07927443832159042,0.03260722756385803,0.08243808150291443,-0.045774947851896286,0.16676442325115204,-0.18049003183841705,0.125619038939476,-0.191175177693367,0.07619529217481613,-0.17437520623207092,-0.03848421946167946,0.17810429632663727,0.1685028076171875,-0.12353963404893875,0.09231448918581009,-0.137900710105896,0.14619533717632294,-0.037315577268600464,0.11661616712808609,0.0333201065659523,0.020190713927149773,-0.032786376774311066,0.005303399171680212,-0.022003544494509697,-0.14479438960552216,-0.014333694241940975,0.07775277644395828,-0.19215452671051025,0.08754363656044006,-0.11048448830842972,0.006355104967951775,0.029715608805418015,-0.17828628420829773,-0.13373494148254395,-0.03045753948390484,0.11663652211427689,0.166129007935524,0.14043700695037842,0.14309227466583252,-0.036325596272945404,-0.17542998492717743,0.1332755982875824,-0.04832423850893974,-0.051438722759485245,0.1940380483865738,0.08269929885864258,0.14659641683101654,-0.01836949773132801,0.0958206057548523,0.1752302199602127,0.16873344779014587,-0.1332690566778183,0.05277532711625099,-0.12328822910785675,0.003110727062448859,-0.09593424946069717,-0.023209156468510628,-0.1294206827878952,0.12320023775100708,-0.024577133357524872],[-0.11353069543838501,-0.07173385471105576,-0.02181568183004856,-0.10057888180017471,-0.06336729228496552,0.08137715607881546,-0.15345169603824615,0.06251931935548782,0.08248202502727509,0.13194482028484344,0.0004532327293418348,-0.050433557480573654,-0.024287227541208267,0.18982897698879242,-0.053057342767715454,0.0676032155752182,-0.08660124987363815,0.1571214646100998,-0.10925941914319992,-0.15226906538009644,-0.08163148164749146,0.08580144494771957,0.16077405214309692,0.07282428443431854,-0.12948869168758392,0.11918537318706512,0.0028651896864175797,-0.06524692475795746,-0.167929545044899,-0.15926995873451233,0.20939257740974426,-0.08024796843528748,-0.16611017286777496,0.16959714889526367,0.10793682187795639,-0.03302989527583122,0.0947568491101265,0.055708613246679306,0.18748271465301514,-0.056162960827350616,0.24295273423194885,-0.15074679255485535,-0.181488037109375,0.13395172357559204,0.10745933651924133,-0.03924254700541496,-0.11825362592935562,-0.14519083499908447,0.03267436847090721,0.16951754689216614,0.020743411034345627,-0.05959758907556534,-0.0687481239438057,-0.07093114405870438,0.19499941170215607,-0.13339348137378693,-0.04261244088411331,0.08802074193954468,0.12754420936107635,0.03147340938448906,0.022159194573760033,-0.02917507477104664,-0.11383289098739624,-0.07792524248361588,0.08056163787841797,0.1070578396320343,0.13205450773239136,0.11227734386920929,0.08016733080148697,-0.12924301624298096,-0.0067291888408362865,0.20774085819721222,0.06806408613920212,-0.021898731589317322,-0.09131377190351486,-0.045086950063705444,-0.0028199644293636084,-0.043087128549814224,0.06538011878728867,0.09608768671751022,0.12534675002098083,0.026207977905869484,0.2669949531555176,0.026005525141954422,-0.12268736213445663,-0.0210215263068676,-0.14858165383338928,0.189853698015213,-0.09784054756164551,-0.09853506833314896,0.14214594662189484,-0.18689997494220734,-0.029252400621771812,0.1657104641199112,0.0783364400267601,0.08843675255775452,0.21146249771118164,0.016472285613417625,0.036737967282533646,0.1379716694355011],[-0.14197778701782227,-0.20940113067626953,-0.12040873616933823,0.15955358743667603,0.09318277984857559,0.07633665949106216,-0.11200693249702454,0.05869694799184799,-0.057205017656087875,0.02839677222073078,-0.1086968258023262,0.18446001410484314,0.06820604205131531,0.044876616448163986,0.031351711601018906,-0.037165287882089615,0.14114028215408325,0.045514319092035294,0.052357032895088196,0.11462011188268661,0.08358099311590195,-0.013759532012045383,0.025718266144394875,0.010751750320196152,-0.06082071736454964,0.009085393510758877,0.14718499779701233,0.0665733814239502,0.07351202517747879,0.1437785029411316,0.14599166810512543,0.005031228996813297,-0.09649142622947693,-0.12167750298976898,0.1656537652015686,0.05900188907980919,-0.09095875918865204,0.053410064429044724,0.12206011265516281,0.017453694716095924,0.1531992405653,0.1004350557923317,0.177531898021698,0.071745865046978,0.03336810693144798,0.07077156752347946,-0.12060059607028961,-0.11851031333208084,0.037950653582811356,-0.08054304122924805,-0.128565713763237,-0.16369026899337769,0.011196708306670189,-0.14805257320404053,-0.04576251283288002,0.15928256511688232,0.19957774877548218,0.13400164246559143,0.15151073038578033,-0.07514365762472153,-0.13546228408813477,-0.01596238650381565,-0.038838062435388565,0.01868339814245701,0.02499462477862835,-0.1036008968949318,0.1467711478471756,0.05611153319478035,0.011725176125764847,-0.1557117998600006,-0.15630854666233063,0.20597593486309052,0.22937758266925812,0.08883016556501389,-0.20173199474811554,-0.017910869792103767,-0.1312965601682663,-0.04635915905237198,-0.1573469191789627,-0.03373022377490997,-0.0033720373176038265,-0.2572588622570038,-0.050076924264431,0.2184400111436844,-0.07255915552377701,0.013483184389770031,0.15682686865329742,-0.1371574103832245,0.13443723320960999,0.2048940807580948,0.1555451601743698,0.09587337076663971,0.06795229017734528,0.16773132979869843,-0.05229828879237175,-0.19340363144874573,0.07501637190580368,-0.15128660202026367,-0.15464766323566437,-0.10219122469425201],[-0.0469575971364975,-0.1257600337266922,-0.18133893609046936,-0.15019212663173676,0.006048555485904217,-0.12288825958967209,0.06733112037181854,-0.16970254480838776,-0.09350105375051498,0.20049995183944702,0.10854168236255646,0.06545916199684143,0.10611527413129807,-0.2212066650390625,-0.13698166608810425,-0.026993531733751297,-0.051921550184488297,-0.1384357511997223,0.21006016433238983,-0.008192622102797031,-0.029393883422017097,0.02342674881219864,0.005111262667924166,-0.034354690462350845,0.10391990840435028,-0.060063958168029785,-0.018064625561237335,-0.0978069007396698,-0.0402001217007637,-0.004803159274160862,0.17914395034313202,-0.0743211880326271,0.22471660375595093,-0.1826958954334259,-0.11445021629333496,-0.08542884141206741,0.028570761904120445,0.062168437987565994,0.0005836779600940645,-0.072905533015728,0.15919449925422668,0.12006666511297226,-0.025373149663209915,-0.09979700297117233,-0.13171446323394775,-0.019435090944170952,0.12156997621059418,0.000592938216868788,-0.1431204229593277,-0.07561363279819489,0.06718264520168304,0.17734280228614807,-0.15662921965122223,0.16975310444831848,0.010923896916210651,-0.10745184868574142,0.15609264373779297,0.17988772690296173,-0.05128392204642296,-0.2430766224861145,0.001498446799814701,-0.0008991551585495472,-0.0755268931388855,0.11452189087867737,-0.05173021927475929,0.03547703102231026,-0.09917642921209335,0.09933236986398697,-0.05073922127485275,0.18289509415626526,0.07226444780826569,-0.12208595871925354,0.03735291212797165,0.190214142203331,0.20625871419906616,-0.06915228068828583,-0.04307752475142479,0.15649379789829254,-0.07645437866449356,0.17118830978870392,0.03360770642757416,-0.015727579593658447,-0.12969493865966797,0.14085978269577026,0.14868910610675812,-0.06399991363286972,0.06550861150026321,0.27798449993133545,0.12322378158569336,0.040223442018032074,-0.18802878260612488,0.16495098173618317,0.05672313645482063,0.16645580530166626,0.10020658373832703,-0.10524042695760727,-0.1449778974056244,0.09238611161708832,0.12426135689020157,-0.11323938518762589],[-0.08794815093278885,-0.02957620844244957,-0.18318474292755127,0.12132761627435684,-0.21263006329536438,-0.10844253748655319,0.1574239730834961,-0.04291873797774315,-0.19521744549274445,0.07639159262180328,0.22486262023448944,-0.06826931983232498,-0.07184552401304245,0.14948095381259918,-0.057149581611156464,-0.12076515704393387,0.047699298709630966,0.17973434925079346,-0.07175526767969131,-0.06284075230360031,0.1639098823070526,0.08861413598060608,0.20568327605724335,0.10953405499458313,-0.10246787965297699,-0.12478058785200119,-0.17701786756515503,0.12008745968341827,-0.05184877663850784,-0.028275296092033386,-0.11618483811616898,-0.05630950257182121,0.040557920932769775,0.19878138601779938,-0.1315794438123703,0.022212499752640724,0.12745417654514313,-0.09480516612529755,-0.016779594123363495,0.11223441362380981,0.09056795388460159,-0.12857267260551453,0.24454741179943085,-0.1442674845457077,-0.016395602375268936,-0.1760452687740326,0.043801747262477875,0.07241525501012802,-0.06445559114217758,-0.1907786875963211,0.1961028277873993,0.127061128616333,0.016736362129449844,0.1571343094110489,0.12857885658740997,-0.023576920852065086,-0.021099813282489777,-0.016731347888708115,-0.1434631645679474,-0.05576149374246597,-0.030702611431479454,-0.10992671549320221,0.2134266346693039,0.1476350575685501,0.04923262447118759,-0.026637770235538483,0.07810305804014206,-0.051226262003183365,-0.06347019970417023,-0.09735783189535141,0.16166050732135773,0.08698720484972,0.15475314855575562,0.0004933319287374616,0.10258443653583527,0.139518141746521,-0.11707063764333725,0.08701018244028091,-0.11624244600534439,0.06064177304506302,0.07980554550886154,0.20739448070526123,-0.09200627356767654,0.023963388055562973,-0.026822425425052643,0.1032818928360939,-0.03921080380678177,0.10381502658128738,0.23182393610477448,0.08238958567380905,-0.001214720425195992,-0.1988992542028427,-0.03469858318567276,0.18703041970729828,-0.08593335747718811,0.025349043309688568,0.13447067141532898,-0.051279813051223755,-0.09205099940299988,0.0016220276011154056],[0.10036641359329224,0.12381242960691452,0.02529081143438816,-0.12931272387504578,-0.1179601401090622,-0.07097591459751129,0.007306688465178013,0.02435179054737091,0.1575462967157364,0.05653020367026329,-0.038788553327322006,0.24154992401599884,0.19210201501846313,-0.0007059146882966161,-0.047690656036138535,0.10063766688108444,0.2106175422668457,-0.07726874202489853,-0.14198482036590576,-0.058845147490501404,-0.10016030073165894,-0.17656272649765015,-0.10660979151725769,0.023493299260735512,-0.09498530626296997,-0.020786695182323456,-0.004207646939903498,0.09966793656349182,-0.12709940969944,-0.03914007917046547,0.1780414581298828,-0.15454699099063873,-0.008857924491167068,-0.0665055364370346,-0.18642380833625793,-0.09402789920568466,0.13537977635860443,-0.02086714655160904,-0.0926511362195015,0.16606301069259644,0.1361590325832367,0.09172956645488739,0.05732404440641403,0.17706143856048584,-0.01221301220357418,0.2171473652124405,-0.09545857459306717,0.011778079904615879,-0.02165388874709606,0.14347662031650543,-0.028208428993821144,-0.03242690861225128,0.12368138134479523,0.03121008351445198,0.007572944276034832,-0.07088608294725418,-0.11475153267383575,0.03540515899658203,-0.10758516192436218,-0.011735247448086739,-0.018303273245692253,-0.036060888320207596,0.04778089374303818,-0.0526113361120224,-0.038372479379177094,-0.15440775454044342,-0.01804279163479805,-0.13781987130641937,0.21411031484603882,0.19229938089847565,0.05947812646627426,0.058438267558813095,0.0006231627194210887,0.23975533246994019,0.03809059038758278,-0.19464586675167084,0.21094292402267456,0.012525452300906181,0.23200723528862,0.04746205732226372,-0.0725024938583374,0.021151995286345482,-0.04040028527379036,0.10100287944078445,0.05710852891206741,-0.018512235954403877,0.0896276980638504,0.09180672466754913,-0.18248556554317474,-0.1203899160027504,-0.002628251677379012,-0.002147749764844775,-0.07995123416185379,0.16638214886188507,0.06342611461877823,-0.0034643705002963543,0.03039400838315487,0.035012565553188324,0.036578841507434845,-0.040691718459129333],[-0.1653662919998169,0.13419209420681,0.06285331398248672,0.22850848734378815,0.21294571459293365,-0.037459321320056915,-0.13448871672153473,-0.09897028654813766,0.12854133546352386,-0.03430284559726715,0.041604187339544296,-0.08836322277784348,0.20573288202285767,-0.027936914935708046,0.22018136084079742,-0.08466272801160812,0.10923533886671066,0.017084462568163872,-0.11309327930212021,0.07892561703920364,-0.0864926427602768,-0.0979909673333168,0.04748137295246124,0.146532341837883,-0.19077669084072113,-0.10127905011177063,0.13497042655944824,0.07272114604711533,-0.1901320070028305,0.023860329762101173,-0.15574003756046295,0.06715771555900574,0.04539928585290909,-0.1547299325466156,-0.009919007308781147,-0.017668630927801132,-0.0555504746735096,0.05620405822992325,0.17289815843105316,0.08317313343286514,-0.07778845727443695,0.018581129610538483,-0.07209523767232895,0.12715893983840942,0.013146935030817986,-0.10839921981096268,0.17002210021018982,0.019516637548804283,0.03744257614016533,0.04219035431742668,0.038195181638002396,-0.20472075045108795,-0.006765391211956739,-0.18884576857089996,-0.09198250621557236,-0.055511560291051865,0.10923387110233307,-0.080963633954525,-0.15611879527568817,-0.13071441650390625,-0.046509385108947754,0.11209578812122345,0.1579689085483551,-0.19645845890045166,0.18026702105998993,0.07309142500162125,-0.12285014241933823,0.18011967837810516,-0.04540020227432251,-0.14515407383441925,-0.04525980353355408,-0.04594288393855095,-0.10502930730581284,0.1278943121433258,0.145914226770401,0.023115964606404305,0.17446960508823395,-0.04156166687607765,0.19945497810840607,0.012789210304617882,0.20319457352161407,0.015280262567102909,0.07537256926298141,0.15073850750923157,0.06587379425764084,-0.09915772080421448,-0.0008295599254779518,-0.0965055525302887,0.062408652156591415,0.09705992788076401,0.09968836605548859,0.044782523065805435,0.11844412982463837,0.19455601274967194,0.03844965621829033,-0.1502012312412262,0.1893685758113861,-0.06936631351709366,-0.1045156866312027,-0.10489782691001892],[-0.13191163539886475,0.06665611267089844,-0.0946991965174675,-0.052968576550483704,-0.05346491560339928,0.16057604551315308,0.1297888308763504,0.016440872102975845,0.19910983741283417,0.17638471722602844,0.20525525510311127,0.15884509682655334,0.16802704334259033,-0.10736265033483505,0.11651928722858429,-0.19163602590560913,-0.0788835659623146,0.0996176153421402,-0.15740405023097992,0.18303969502449036,-0.030229544267058372,-0.12050788849592209,0.15567483007907867,-0.03414352983236313,0.036431822925806046,0.15104147791862488,-0.09490536153316498,-0.04982789605855942,-0.10192734003067017,0.033982887864112854,0.044405944645404816,-0.151702418923378,0.06633710861206055,-0.021530156955122948,-0.08443588018417358,0.08294206857681274,0.15228398144245148,0.19477269053459167,-0.20153583586215973,-0.1272786259651184,-0.04723964259028435,0.02623104676604271,-0.08274134993553162,0.016729533672332764,0.1535266637802124,-0.10978281497955322,0.09512460976839066,-0.08879244327545166,0.1381564438343048,-0.12596513330936432,-0.004582609049975872,-0.15960995852947235,-0.05065670236945152,0.09474767744541168,0.19827546179294586,-0.05579841509461403,0.04896971955895424,0.12129385024309158,0.032021451741456985,-0.2130812108516693,-0.04933890327811241,0.017096349969506264,-0.11578413099050522,0.07208365201950073,-0.07694831490516663,0.04296812042593956,-0.19359396398067474,0.07834620773792267,0.04310233145952225,0.013728806748986244,-0.171230748295784,0.027376525104045868,-0.17029176652431488,0.15371425449848175,0.01300843432545662,0.06798677146434784,0.1016402393579483,-0.02996183931827545,0.03503497317433357,-0.11858746409416199,-0.04865235835313797,0.21074585616588593,0.009563727304339409,0.12995505332946777,-0.015477021224796772,0.2026519924402237,-0.15233178436756134,0.03826107829809189,-0.1609140783548355,0.07546655833721161,-0.14207860827445984,-0.16826927661895752,0.12238263338804245,0.0646522119641304,0.1549980640411377,-0.06461305916309357,-0.1905004233121872,-0.19968301057815552,-0.14297917485237122,0.015201005153357983],[-0.07077497243881226,-0.17977212369441986,0.0422915518283844,-0.009777500294148922,-0.1525900959968567,0.011138837784528732,0.08169247210025787,0.00895391684025526,-0.0970337986946106,-0.13555318117141724,0.04688099026679993,-0.10119970887899399,-0.08363208174705505,-0.02187456376850605,-0.1286832094192505,0.14294281601905823,-0.1516442894935608,0.07973732054233551,-0.03740213066339493,-0.04058245196938515,-0.13239990174770355,0.01562497764825821,-0.07109318673610687,0.14097090065479279,-0.13201341032981873,-0.20594128966331482,-0.05460682511329651,0.0977669507265091,-0.18003219366073608,-0.06404417008161545,-0.0010342751629650593,-0.018571412190794945,0.16612781584262848,0.1944194734096527,0.11266936361789703,-0.09215395152568817,-0.09033822268247604,-0.03208053112030029,-0.046380504965782166,0.014312956482172012,-0.1387871652841568,-0.10917085409164429,-0.05714269354939461,-0.1699053794145584,-0.05744563788175583,-0.07769886404275894,-0.08344218134880066,0.06629948318004608,-0.13333392143249512,-0.21954084932804108,0.04881468787789345,0.025740036740899086,-0.0699353963136673,-0.07131096720695496,-0.00772171700373292,0.09928542375564575,-0.051325321197509766,-0.024333715438842773,0.20584940910339355,-0.12256249785423279,-0.16661590337753296,-0.014221309684216976,-0.08350610733032227,-0.10857651382684708,-0.041131433099508286,0.1042301133275032,0.18668900430202484,-0.09941649436950684,0.03545268252491951,-0.13057225942611694,0.13171058893203735,0.1441187858581543,-0.11396855860948563,0.12797138094902039,0.12236420810222626,0.05926856771111488,0.07794896513223648,0.05884741246700287,0.06689389050006866,0.06608232110738754,0.1352040022611618,0.1662409007549286,0.12904980778694153,-0.0799812525510788,0.03347271308302879,-0.06262499839067459,0.17695054411888123,0.19579268991947174,-0.04322030022740364,0.1427973508834839,0.2007068395614624,-0.22538208961486816,0.16805797815322876,-0.14015156030654907,0.2291167974472046,-0.10622340440750122,-0.16940957307815552,-0.18932412564754486,-0.04247261583805084,-0.15997177362442017],[-0.022776473313570023,0.16741810739040375,0.21540838479995728,-0.1747966706752777,0.1834973394870758,-0.15430550277233124,-0.11658532172441483,-0.07059165090322495,-0.09315098822116852,0.06402122229337692,-0.14773441851139069,-0.13303077220916748,0.1602076292037964,0.010179371573030949,-0.014063762500882149,-0.008673189207911491,0.18840572237968445,-0.17811572551727295,0.017789974808692932,-0.19468212127685547,-0.13710352778434753,-0.12929916381835938,0.180958554148674,0.10278118401765823,0.1990717351436615,0.19233131408691406,-0.047936245799064636,0.15296508371829987,0.17484711110591888,0.16554231941699982,0.14579875767230988,0.16897892951965332,-0.17932923138141632,0.03735407814383507,-0.04892847687005997,0.023686883971095085,0.10333540290594101,0.21601150929927826,-0.10352261364459991,-0.1528937965631485,-0.01720394752919674,-0.11808101832866669,-0.13101595640182495,0.22171325981616974,-0.04325113445520401,0.18782983720302582,0.01763879507780075,0.20134185254573822,0.11266500502824783,0.11738143861293793,0.060573600232601166,0.14417174458503723,0.04408060014247894,-0.10490842908620834,-0.08892647176980972,0.05683794245123863,0.026491058990359306,0.08733631670475006,0.12136448174715042,-0.06307302415370941,0.08521025627851486,-0.14174240827560425,-0.09145769476890564,-0.0910828486084938,-0.09304734319448471,-0.10477619618177414,0.12748533487319946,-0.1463155299425125,0.08644759654998779,0.19845667481422424,-0.1394931524991989,-0.03198961168527603,-0.0701117217540741,-0.10755612701177597,-0.0013283478328958154,-0.012876537628471851,-0.0596231073141098,0.1570541262626648,-0.01227566134184599,0.1578734815120697,-0.04641071707010269,0.14215593039989471,0.2870885729789734,0.14369341731071472,-0.13479037582874298,-0.08632686734199524,0.05295496806502342,-0.050912175327539444,0.10811976343393326,-0.1904379427433014,-0.06981107592582703,-0.21270380914211273,-0.11933942884206772,0.1590699404478073,0.06488635390996933,0.11550035327672958,0.20524612069129944,0.1684957891702652,-0.003166899085044861,-0.12656188011169434],[0.06602203845977783,0.020218629390001297,-0.03616795688867569,0.08930657058954239,0.12956050038337708,-0.1277303248643875,-0.05579541251063347,0.19019192457199097,-0.10899762064218521,-0.15270079672336578,-0.011341586709022522,0.016297340393066406,0.27933230996131897,0.25017064809799194,0.0477399080991745,0.13240468502044678,0.2483389675617218,0.012325267307460308,-0.006698550656437874,0.0995706245303154,0.21284586191177368,-0.14426934719085693,-0.1694032996892929,-0.1354892998933792,0.005682175513356924,0.09172908216714859,-0.03876196965575218,0.21493211388587952,-0.10098478198051453,0.022784903645515442,-0.13156019151210785,0.08569667488336563,0.090120829641819,0.05562126263976097,0.036565590649843216,0.10286103188991547,-0.17639197409152985,0.2181791216135025,0.174388125538826,-0.17893396317958832,-0.040623459964990616,-0.11290328204631805,0.1507021188735962,0.2901057004928589,0.1990354210138321,-0.02421179786324501,0.1516537368297577,-0.04512159153819084,-0.10822384804487228,0.0190225038677454,-0.026339901611208916,-0.05761395022273064,0.020326633006334305,0.04681812599301338,-0.0364733561873436,-0.02921743504703045,0.18620796501636505,-0.07778649777173996,-0.09026188403367996,-0.11912041157484055,0.06189298629760742,-0.06058701127767563,0.1580873727798462,-0.1901058554649353,0.21825917065143585,-0.212041974067688,-0.1719479262828827,0.04908392205834389,0.09132692217826843,0.1645517349243164,0.11114376038312912,0.1497955322265625,0.14970770478248596,0.09650364518165588,-0.18471591174602509,-0.11086560785770416,-0.04357970133423805,-0.239640012383461,-0.0580359548330307,0.18985338509082794,-0.1855805218219757,-0.10833598673343658,-0.016122573986649513,0.034661244601011276,-0.21922124922275543,-0.1616123467683792,0.01789730414748192,0.16811572015285492,-0.11776375025510788,0.14824514091014862,0.02199692465364933,-0.021796710789203644,0.006251584738492966,-0.06620389968156815,0.1631818264722824,0.04418491944670677,0.04600856453180313,0.009905170649290085,-0.22361494600772858,0.06083009019494057],[0.04076741263270378,0.1664888858795166,0.0657990425825119,-0.00920847151428461,0.17624057829380035,-0.012155127711594105,-0.12708605825901031,0.07537132501602173,0.09993848204612732,-0.13967466354370117,0.24930579960346222,0.10000652074813843,0.20335999131202698,-0.036756955087184906,0.09712406247854233,0.14768855273723602,0.14924858510494232,0.1342741996049881,-0.08329606056213379,0.13894377648830414,0.16848419606685638,0.06313782185316086,0.16181553900241852,-0.13694235682487488,0.13712574541568756,-0.12138106673955917,-0.14959032833576202,-0.06384812295436859,-0.040110357105731964,-0.02908335067331791,0.02762165106832981,-0.08406006544828415,0.1405431032180786,-0.12002570182085037,-0.01955837942659855,0.01653090864419937,0.13170036673545837,-0.051415007561445236,-0.02513892389833927,0.1869991570711136,-0.09973905235528946,-0.00996604934334755,0.018773337826132774,0.05030461400747299,0.22863495349884033,0.0038426052778959274,0.04055959731340408,-0.12064182013273239,0.04369578883051872,0.012372777797281742,-0.07897154241800308,-0.14953279495239258,0.03546348959207535,0.13701973855495453,0.08228250592947006,-0.05836721137166023,0.2304530143737793,0.050820887088775635,-0.16374151408672333,-0.21814794838428497,0.18228618800640106,0.11911766231060028,0.05010223761200905,0.22752773761749268,-0.16429147124290466,0.14700917899608612,0.11612993478775024,-0.01605202443897724,0.14006036520004272,-0.08139403164386749,0.05017116293311119,0.08915339410305023,-0.14312918484210968,-0.14856654405593872,0.2213839590549469,0.026876240968704224,-0.14181701838970184,0.10679984092712402,0.11058127135038376,0.13494116067886353,-0.1421598494052887,0.22387738525867462,-0.12217330187559128,0.06641950458288193,0.11142019182443619,-0.011417025700211525,0.07711097598075867,0.2523365318775177,0.09238524734973907,-0.07223788648843765,0.07951680570840836,0.0933552160859108,-0.00178064766805619,-0.034670185297727585,0.010455950163304806,0.13186709582805634,-0.22495272755622864,-0.04001850634813309,-0.1505812704563141,0.12148721516132355],[0.16099689900875092,0.05622987449169159,-0.04856083542108536,-0.08237992972135544,-0.015737349167466164,-0.16826516389846802,0.16932834684848785,-0.11396142095327377,-0.1522841602563858,0.052914321422576904,-0.1368020474910736,0.17019276320934296,-0.17285975813865662,-0.06442396342754364,-0.1127379983663559,-0.01033747661858797,-0.02375444583594799,0.20086541771888733,0.08688198775053024,-0.09438370913267136,0.12159281969070435,-0.12229203432798386,0.19315801560878754,-0.006279780995100737,0.12636007368564606,-0.0515139177441597,-0.1533409059047699,0.05103414133191109,0.07339191436767578,0.10873651504516602,-0.019092736765742302,-0.0537378154695034,-0.0714588612318039,0.19942587614059448,0.09443207085132599,0.19860191643238068,0.10233813524246216,-0.027526168152689934,0.021921025589108467,0.0950905829668045,0.0034369337372481823,0.08452152460813522,0.058860134333372116,-0.04019271954894066,-0.0833473727107048,0.10417385399341583,-0.09555265307426453,-0.015821445733308792,-0.047504208981990814,-0.2163989543914795,0.028124051168560982,0.007975785993039608,-0.1144665852189064,-0.0572856180369854,-0.1300865113735199,0.049892622977495193,0.11040318012237549,0.12897242605686188,0.1830487698316574,0.019392874091863632,-0.09702534973621368,0.1849912852048874,0.2103337198495865,0.05434923991560936,0.12076877802610397,0.07382567971944809,-0.01912064105272293,0.07858015596866608,0.051005374640226364,-0.1812027096748352,-0.025922885164618492,-0.027868611738085747,0.0299679022282362,0.012037192471325397,-0.08889928460121155,-0.15924401581287384,-0.13291950523853302,0.16779662668704987,-0.14005744457244873,-0.20802640914916992,0.1591869294643402,0.003080446505919099,-0.11212074756622314,-0.05804191902279854,0.1480291783809662,-0.1161695271730423,-0.15312550961971283,-0.04246656969189644,-0.08139831572771072,-0.08333370089530945,0.014024995267391205,-0.11330367624759674,0.10862937569618225,-0.16189682483673096,0.16730478405952454,0.13610932230949402,-0.0694810226559639,-0.02916877344250679,0.1950494796037674,-0.08300486207008362],[0.03902389854192734,0.022546403110027313,-0.020190557464957237,0.02228493243455887,-0.011776570230722427,-0.2385638952255249,0.11705078184604645,0.12930941581726074,0.23954614996910095,0.1781526356935501,0.002507286611944437,0.12466324120759964,0.1305001825094223,-0.06097175180912018,0.12545381486415863,0.029730549082159996,0.10186149924993515,-0.18668800592422485,-0.00038484440301544964,0.10786611586809158,0.10561809688806534,-0.07043475657701492,-0.049975618720054626,-0.13054482638835907,0.07672753930091858,0.10712499916553497,-0.1721734255552292,0.14961528778076172,-0.0322951003909111,0.04471387341618538,-0.03004283644258976,-0.10620211064815521,0.07210493832826614,0.12345191836357117,0.10729724168777466,-0.1959734410047531,-0.10658993571996689,-0.067012257874012,0.07061585038900375,0.026862576603889465,0.2715075612068176,0.14203636348247528,0.033557869493961334,0.1293446570634842,0.12416014075279236,0.16691972315311432,0.08597023040056229,0.11312135308980942,-0.13299396634101868,-0.016010599210858345,0.05296685919165611,0.13450469076633453,0.13924209773540497,-0.08445436507463455,-0.07447035610675812,0.04210202023386955,-0.19778373837471008,0.0032958441879600286,-0.11758190393447876,-0.1057393029332161,-0.02530662529170513,0.1696670651435852,0.10015467554330826,-0.09657250344753265,0.05340800806879997,0.10059573501348495,-0.06412797421216965,-0.20231099426746368,0.19725647568702698,-0.141831174492836,-0.16795188188552856,-0.16050341725349426,0.13185721635818481,0.1390143483877182,-0.0389549620449543,0.0616035982966423,0.21151591837406158,0.17669270932674408,-0.011660679243505001,-0.13211947679519653,-0.01861855573952198,0.02376006729900837,0.17394518852233887,0.02063528262078762,0.042826466262340546,0.05029278248548508,0.08102044463157654,-0.014878352172672749,-0.19629336893558502,-0.21750858426094055,0.023459171876311302,-0.05391687527298927,-0.15145869553089142,0.1493762880563736,-0.17333367466926575,-0.05407337844371796,-0.08166775852441788,-0.030081728473305702,0.06766205281019211,-0.21710442006587982],[0.0912962257862091,0.1722608506679535,-0.12357822060585022,0.17611713707447052,0.06803369522094727,-0.20383992791175842,-0.13358817994594574,0.1590566486120224,0.21697482466697693,-0.02975565940141678,0.17677192389965057,0.031124720349907875,-0.09396742284297943,0.12145064771175385,-0.07585147768259048,0.03893706202507019,0.1114809513092041,-0.18075726926326752,-0.13100844621658325,-0.04228454828262329,0.09094676375389099,0.16739191114902496,0.10930602997541428,-0.049738530069589615,-0.16582348942756653,-0.20094525814056396,-0.09713364392518997,0.03211637958884239,0.12047679722309113,0.18345293402671814,-0.06427974998950958,-0.06955292820930481,-0.10428888350725174,0.2030203938484192,-0.053901102393865585,-0.1540898233652115,-0.1816391944885254,0.1686485856771469,0.04567638039588928,-0.19202052056789398,-0.19952791929244995,-0.12230843305587769,0.008679886348545551,0.15659105777740479,0.24449162185192108,-0.052456311881542206,0.06263695657253265,-0.12883539497852325,0.17917849123477936,-0.1076926663517952,-0.006029112264513969,0.13051502406597137,0.022520679980516434,0.16895000636577606,0.1381666213274002,-0.1780599057674408,0.06092408671975136,-0.1518876999616623,-0.10736322402954102,-0.2240573763847351,-0.030411096289753914,-0.13826234638690948,0.14067894220352173,-0.04726959019899368,-0.03700859472155571,-0.13213735818862915,0.21159087121486664,0.23503097891807556,0.10002892464399338,0.028100237250328064,0.04566790908575058,-0.014649986289441586,0.15869222581386566,-0.0026957395020872355,0.035872843116521835,0.11387889832258224,-0.07911289483308792,0.008213548921048641,-0.17198960483074188,0.23467537760734558,0.09694270044565201,-0.23040719330310822,0.1437615007162094,-0.026447420939803123,-0.21513353288173676,0.06956073641777039,-0.013161865994334221,-0.12222419679164886,0.07483935356140137,-0.08595839142799377,0.06466593593358994,-0.02766784466803074,-0.1930941939353943,0.03813345730304718,-0.0008675907738506794,-0.1033044308423996,0.09146025776863098,-0.12978804111480713,0.16381268203258514,-0.04458676278591156],[0.05231764167547226,-0.004888571798801422,-0.0041702743619680405,-0.12276340276002884,0.10015623271465302,-0.06897034496068954,0.1439228057861328,0.1090598776936531,0.042310990393161774,0.07613546401262283,0.2051539272069931,-0.20159761607646942,0.011514436453580856,-0.13030946254730225,0.07662098854780197,0.1549765020608902,-0.003972748294472694,0.01519314106553793,0.21475033462047577,0.16983996331691742,-0.028417078778147697,-0.02569504640996456,0.19026301801204681,-0.06309423595666885,-0.09110348671674728,-0.11073945462703705,0.02480366639792919,-0.1024293527007103,-0.01716040074825287,0.1807660460472107,0.10496403276920319,-0.028060318902134895,0.10600604116916656,-0.11655134707689285,0.1671520173549652,0.06114862486720085,0.22245140373706818,0.1556726098060608,0.08520344644784927,0.10017959028482437,0.18830032646656036,0.003249567234888673,-0.24110057950019836,-0.13939954340457916,0.22430846095085144,-0.062067028135061264,0.13012467324733734,-0.1629439741373062,-0.22530293464660645,0.08429113775491714,-0.20357941091060638,-0.061011042445898056,-0.03139396384358406,-0.01603745110332966,0.04737100005149841,0.07972335070371628,-0.05402150750160217,-0.150022491812706,0.04380493611097336,-0.24515347182750702,0.057913362979888916,-0.11603705585002899,-0.13658356666564941,0.11677729338407516,-0.2223944514989853,0.07180329412221909,-0.04352165013551712,0.14250241219997406,-0.15264098346233368,-0.06657709926366806,0.09789089858531952,0.07475358992815018,-0.18278193473815918,0.18661171197891235,0.2728928327560425,0.23841015994548798,-0.026326395571231842,0.130147323012352,0.08818003535270691,-0.11950695514678955,-0.06045076996088028,0.038604721426963806,0.047561224550008774,-0.024122687056660652,0.04893705993890762,0.14808794856071472,-0.20260125398635864,-0.10571800917387009,-0.12695664167404175,0.09293664991855621,-0.04569753259420395,-0.0546572171151638,-0.15981167554855347,0.1417108178138733,0.16188281774520874,0.1391964554786682,-0.04563633352518082,-0.11445443332195282,0.0167216956615448,0.1105472594499588],[0.05628373101353645,0.014271249063313007,0.004480248317122459,-0.11393264681100845,-0.07880456000566483,-0.01630902662873268,-0.049099624156951904,0.07419311255216599,-0.12118683755397797,0.21070891618728638,0.07855593413114548,0.020485656335949898,-0.0057378667406737804,0.13118094205856323,-0.14667849242687225,-0.03557317703962326,0.03482532873749733,0.0058490438386797905,0.06039958819746971,-0.011490415781736374,-0.19048285484313965,0.1655731350183487,0.081022709608078,0.12824231386184692,0.13080783188343048,0.1408238410949707,0.04439171776175499,-0.10456495732069016,0.12120074033737183,0.04109713062644005,-0.07245565950870514,0.0659806951880455,-0.07941016554832458,-0.15619073808193207,-0.16498993337154388,0.03882692754268646,-0.061165716499090195,0.04168440029025078,0.18556059896945953,-0.10343050211668015,-0.06624807417392731,-0.0772649422287941,0.15411539375782013,0.006953975651413202,0.08340931683778763,0.10897309333086014,-0.18026024103164673,-0.2011861354112625,0.14062149822711945,-0.15985772013664246,0.21417614817619324,0.17751558125019073,0.12216402590274811,-0.03858552500605583,0.115129753947258,-0.012025064788758755,0.192325159907341,0.08818422257900238,-0.09539657086133957,0.13829584419727325,-0.18939293920993805,0.027138998731970787,0.009041037410497665,-0.11233611404895782,-0.042658090591430664,0.005703388247638941,0.14530672132968903,-0.09382743388414383,0.005289506167173386,-0.2120058834552765,0.21336133778095245,-0.015879370272159576,-0.19679710268974304,0.026943394914269447,0.09518318623304367,0.10068189352750778,0.14993074536323547,-0.1264365166425705,0.1443147510290146,0.11903704702854156,-0.03637349233031273,-0.08156640082597733,-0.12087210267782211,0.09440150856971741,0.027434082701802254,0.0706406906247139,0.07903458923101425,-0.13614797592163086,0.23840822279453278,-0.06456015259027481,0.16224926710128784,-0.23629246652126312,0.10855408757925034,-0.13994619250297546,0.21250253915786743,-0.1332726776599884,-0.14018380641937256,-0.03536603972315788,0.20541326701641083,0.2088911533355713],[-0.13262274861335754,0.14704427123069763,0.20912277698516846,-0.03307437151670456,0.09890426695346832,0.030546288937330246,-0.11268525570631027,0.15408748388290405,-0.009101822040975094,-0.14942781627178192,-0.06819137185811996,0.2515970468521118,-0.03865041211247444,-0.006104099564254284,-0.11277759820222855,0.10860799252986908,-0.09911086410284042,-0.012954721227288246,-0.11908797174692154,0.04913567751646042,-0.15042710304260254,0.06560426950454712,0.13162897527217865,0.08508764952421188,0.02813362143933773,-0.15547943115234375,-0.06447651237249374,0.10454738140106201,0.09923242032527924,-0.004487205762416124,-0.02448110468685627,0.22176407277584076,0.09130670875310898,0.03192271664738655,-0.11710722744464874,-0.13285930454730988,-0.04354287311434746,0.188649520277977,-0.12913039326667786,0.17750141024589539,0.10952037572860718,0.0036652928683906794,-0.07601628452539444,0.018504953011870384,-0.1605139970779419,0.0631299838423729,-0.007075283210724592,0.18433494865894318,0.017375707626342773,0.1346759796142578,-0.14310753345489502,-0.07352514564990997,0.11685869097709656,-0.0986117497086525,-0.14174114167690277,0.1410711258649826,0.15022563934326172,0.05899132788181305,0.1497829705476761,-0.10394922643899918,-0.04897266998887062,0.1346079707145691,0.09056802093982697,-0.18227757513523102,0.1856309175491333,-0.016589393839240074,0.032745324075222015,0.10922261327505112,-0.12298920005559921,0.1712198555469513,-0.10142958909273148,0.21046383678913116,-0.19637037813663483,-0.0629381462931633,-0.19064396619796753,-0.09289941191673279,-0.1740378588438034,0.10490423440933228,-0.0244582612067461,0.04059746116399765,-0.13731522858142853,0.12473681569099426,0.18703149259090424,-0.008054896257817745,-0.12579038739204407,0.031929321587085724,-0.09428536146879196,-0.15942956507205963,0.09001637995243073,0.043837811797857285,-0.048971112817525864,-0.21263623237609863,-0.20776596665382385,-0.009005342610180378,0.11580174416303635,0.12979744374752045,0.09583624452352524,-0.03610827773809433,-0.10109657049179077,0.05272259935736656],[-0.2066763937473297,-0.10009723901748657,0.15204587578773499,0.12591920793056488,-0.29109811782836914,-0.15792959928512573,0.058026839047670364,-0.08669376373291016,0.19769656658172607,-0.04278561472892761,-0.048780493438243866,0.12003597617149353,0.056519199162721634,-0.18578805029392242,-0.13981029391288757,-0.03313799947500229,-0.05755932256579399,0.1880451887845993,0.07905466109514236,-0.001049546990543604,-0.15078994631767273,0.006503133103251457,-0.08004496246576309,-0.2680835425853729,0.009110962972044945,-0.2066541165113449,-0.012017211876809597,-0.14645937085151672,-0.06205029413104057,0.0894385427236557,0.21930871903896332,0.1398376226425171,0.19341084361076355,-0.06615525484085083,-0.05404067412018776,0.0759957954287529,-0.177922785282135,0.10231035202741623,0.11435617506504059,-0.18737250566482544,-0.0792173221707344,-0.21907919645309448,0.25890442728996277,-0.023894410580396652,0.2790650427341461,-0.07129783928394318,0.05964632332324982,-0.10252201557159424,0.24268168210983276,-0.09375374764204025,-0.053207073360681534,0.16928642988204956,0.18976940214633942,-0.12335381656885147,-0.0129786292091012,0.008920010179281235,0.13592621684074402,-0.026429926976561546,0.10344169288873672,-0.016604362055659294,0.1347665786743164,0.22645525634288788,0.1171036884188652,0.0895114541053772,-0.2918629050254822,0.22106531262397766,0.13394318521022797,0.2267032414674759,0.07521579414606094,-0.1689033806324005,0.17025470733642578,-0.0126276146620512,0.25501784682273865,0.12975487112998962,0.10178155452013016,-0.041417378932237625,-8.978713594842702e-05,-0.026603499427437782,-0.1111006885766983,0.0245354026556015,-0.01283646747469902,-0.08777108788490295,0.04051973298192024,0.17998164892196655,0.1804988831281662,-0.08010664582252502,-0.026664013043045998,-0.021951042115688324,0.04652339592576027,0.14133024215698242,-0.17857028543949127,0.11175785213708878,-0.1796838343143463,0.06384975463151932,-0.059793274849653244,0.08004716783761978,0.09688901901245117,-0.0015500892186537385,-0.10112792253494263,0.14996421337127686],[-0.17367258667945862,-0.11169152706861496,0.05730853229761124,-0.15391883254051208,0.09393783658742905,-0.04455820843577385,-0.19409263134002686,0.05704295635223389,-0.030464032664895058,0.17687194049358368,0.1038312017917633,-0.06835776567459106,0.036058101803064346,0.020176958292722702,0.11933885514736176,-0.007633390370756388,0.05670371651649475,-0.1788550466299057,0.07805848866701126,-0.08039241284132004,0.07618996500968933,0.13607779145240784,0.021860504522919655,-0.12886828184127808,-0.10511025041341782,-0.17173698544502258,-0.02564874291419983,-0.05961351841688156,0.11071974039077759,-0.01889791339635849,-0.12483163923025131,-0.2403162568807602,0.31181517243385315,0.09442425519227982,-0.10418085753917694,-0.1777571588754654,-0.00471826596185565,0.12074257433414459,0.056426309049129486,-0.03955429792404175,0.03411421924829483,-0.173805832862854,0.0035760304890573025,-0.20339831709861755,-0.14353203773498535,-0.0033165474887937307,-0.004442260600626469,-0.01310995314270258,-0.025028007104992867,-0.07623342424631119,0.00706286309286952,0.10295333713293076,0.01620856486260891,0.03177056089043617,0.22087286412715912,-0.22616426646709442,0.18997441232204437,0.0074423206970095634,-0.11062455177307129,0.011770380660891533,-0.0029032209422439337,-0.0004443306534085423,0.05686941742897034,0.16537117958068848,-0.10127110779285431,0.13376455008983612,-0.10874499380588531,-0.07340216636657715,-0.13691411912441254,0.04127621278166771,0.10761880874633789,0.10998524725437164,-0.11738324910402298,-0.10059235244989395,0.24815012514591217,0.05016089603304863,-0.13908369839191437,0.04620356112718582,-0.012909363023936749,0.16836313903331757,0.15534429252147675,-0.10317345708608627,-0.12683488428592682,-0.04708634316921234,0.0248553529381752,0.15171931684017181,0.07429558038711548,0.08204866200685501,-0.18046143651008606,-0.0845947116613388,-0.10197336971759796,-0.0026897266507148743,-0.025290125980973244,-0.08787183463573456,0.028581416234374046,0.03445485606789589,-0.1908368468284607,-0.05730792507529259,-0.08217738568782806,0.17869329452514648],[-0.021270813420414925,-0.032781850546598434,-0.08228420466184616,0.029681041836738586,-0.19123475253582,-0.06936150789260864,0.01405035238713026,-0.12407314777374268,0.15119674801826477,0.22812429070472717,-0.046153903007507324,0.011317476630210876,-0.1162179484963417,-0.09166596084833145,-0.022997833788394928,-0.006341713480651379,-0.15264542400836945,0.12069657444953918,0.13151538372039795,-0.04582439363002777,-0.151131734251976,0.053273897618055344,-0.06815066188573837,0.16126811504364014,0.11581919342279434,0.14098156988620758,-0.018418846651911736,0.04388654604554176,0.06699571013450623,0.01759270578622818,-0.19061151146888733,0.06031431630253792,-0.11247997730970383,-0.08158194273710251,0.04670587182044983,-0.12284912168979645,-0.10617907345294952,0.048284564167261124,0.07708650082349777,-0.15369775891304016,0.136440247297287,-0.06907247006893158,-0.026407593861222267,-0.1553078293800354,0.15012891590595245,-0.006787326652556658,-0.09850256890058517,-0.08432140201330185,-0.0022024803329259157,0.04934758320450783,-0.011285442858934402,-0.0988997295498848,0.18556497991085052,0.12476366013288498,-0.12421450763940811,0.16672897338867188,-0.14785493910312653,-0.02321014180779457,-0.00647020572796464,-0.11397597193717957,-0.07050633430480957,0.02329111099243164,0.0697937086224556,0.17812158167362213,0.05254004895687103,-0.07706249505281448,0.1354946345090866,-0.15750402212142944,0.05135958269238472,-0.2494223266839981,0.11485254019498825,-0.07720369100570679,-0.20237545669078827,-0.1506665199995041,-0.003958770539611578,-0.009029127657413483,-0.15274406969547272,0.19490140676498413,0.10502266883850098,-0.005616487003862858,0.02674521692097187,-0.08330004662275314,-0.1897285133600235,0.06999646872282028,0.11488714069128036,-0.08046093583106995,-0.07290308177471161,0.014817389659583569,0.09473563730716705,0.09588821232318878,0.15526685118675232,-0.052930496633052826,0.16262631118297577,0.1772730052471161,0.1537782996892929,0.09732623398303986,-0.1396319568157196,0.03300916403532028,-0.037190455943346024,-0.08629970252513885],[-0.010226993821561337,-0.16376997530460358,-0.0070516630075871944,-0.11284783482551575,-0.05843881517648697,-0.1260325312614441,0.21586760878562927,-0.1448393017053604,0.13692983984947205,0.13266050815582275,-0.09937607496976852,0.07951033860445023,0.20350587368011475,-0.10625454038381577,0.1847139596939087,0.09029870480298996,0.17005378007888794,-0.1465122550725937,-0.06708227843046188,-0.2125982791185379,0.09324131160974503,0.2109733372926712,-0.08683838695287704,0.04187356308102608,0.07500022649765015,0.06269283592700958,0.15008489787578583,0.1930972784757614,-0.024797851219773293,0.07362068444490433,-0.03348718211054802,-0.08462850749492645,-0.10945762693881989,0.04972931742668152,0.16853326559066772,-0.013305272907018661,-0.1389860212802887,0.21989110112190247,-0.028576962649822235,-0.10925526171922684,-0.05491259694099426,0.1242767944931984,-0.11905565857887268,0.09249304980039597,-0.010220966301858425,0.13697853684425354,0.1738467663526535,-0.008097674697637558,-0.2286805957555771,-0.03112570382654667,0.11156594753265381,0.15510022640228271,-0.02742783911526203,-0.001988597447052598,-0.13973714411258698,0.18393179774284363,-0.10232356190681458,-0.006835193373262882,0.07594145089387894,0.1342589110136032,0.18119080364704132,0.08787614852190018,0.081959567964077,0.1546785533428192,0.13869231939315796,0.02910802885890007,0.20386195182800293,0.0010814290726557374,0.02342400886118412,-0.06411348283290863,0.0853966772556305,-0.022683341056108475,-0.18109740316867828,0.120017409324646,-0.030223341658711433,-0.17608994245529175,-0.018481260165572166,0.20622071623802185,0.05045265331864357,-0.11079230904579163,0.04978691413998604,0.09015970677137375,0.23487453162670135,0.025363150984048843,0.05181000381708145,0.06554204970598221,0.01807263493537903,-0.19984956085681915,0.11070016771554947,-0.09091895818710327,-0.017888743430376053,-0.058540280908346176,0.0031225027050822973,0.09118195623159409,-0.13805679976940155,0.1193888783454895,0.07493827491998672,0.023477287963032722,0.04025658220052719,-0.1754201352596283],[-0.08851128071546555,0.25125157833099365,0.008029523305594921,-0.09515736252069473,-0.08472613990306854,0.09609267860651016,0.17966996133327484,0.2147192806005478,0.17183440923690796,0.06725575029850006,0.10874821245670319,-0.09699474275112152,-0.02706666849553585,0.11229747533798218,0.07672932744026184,0.05300353839993477,-0.26528531312942505,0.12994058430194855,0.06983773410320282,0.02395706996321678,-0.15181168913841248,-0.14363659918308258,0.07159706950187683,-4.58595241070725e-06,-0.12171468138694763,-0.17346088588237762,0.1363551765680313,-0.15034329891204834,-0.03444065898656845,0.08014815300703049,-0.03959987685084343,-0.15114283561706543,0.14642781019210815,0.13626866042613983,0.034962233155965805,0.09730944037437439,-0.1941220909357071,0.01523223239928484,0.007744377478957176,0.038302917033433914,0.14958177506923676,-0.03943200409412384,0.06463206559419632,-0.1320272833108902,0.1305977702140808,0.11296526342630386,-0.07816711813211441,0.08725309371948242,0.1962120532989502,-0.06707079708576202,0.049682117998600006,0.07394665479660034,-0.11802330613136292,-0.1801132708787918,-0.16410179436206818,-0.23999463021755219,0.24806943535804749,-0.06986553966999054,0.18069185316562653,-0.16458618640899658,-0.040008120238780975,-0.061119820922613144,-0.11420436948537827,-0.06325850635766983,-0.19787779450416565,0.014370662160217762,0.08761158585548401,0.02451441064476967,0.22188319265842438,0.12408570945262909,-0.08072493225336075,-0.18037661910057068,0.19406141340732574,-0.10624200850725174,-0.026080138981342316,0.1561693251132965,-0.21201804280281067,-0.07325742393732071,-0.02935785986483097,0.05860894173383713,0.17166072130203247,0.18319469690322876,0.21234680712223053,0.1390516757965088,0.17705480754375458,-0.10428520292043686,0.032985102385282516,0.18928197026252747,0.1562170535326004,-0.0005637858412228525,-0.0763026550412178,0.12065409868955612,-0.16713593900203705,-0.07623576372861862,0.00930702779442072,0.09688632935285568,-0.24701879918575287,-0.3093537390232086,-0.13391578197479248,0.17631736397743225],[-0.0015092773828655481,-0.1160343661904335,-0.14399564266204834,0.18793660402297974,0.012324817478656769,-0.07407158613204956,-0.17383092641830444,-0.20156073570251465,-0.1589614748954773,-0.010414713062345982,0.18533942103385925,-0.2014717310667038,0.12861017882823944,-0.19678209722042084,-0.08578385412693024,0.09407812356948853,0.12072916328907013,0.011925927363336086,0.14980506896972656,0.09326259046792984,0.12391363829374313,-0.15099278092384338,-0.16350379586219788,-0.0806192085146904,-0.1227695643901825,0.05959925800561905,0.05911152809858322,-0.017480283975601196,0.04094012454152107,-0.06070806086063385,0.03455511853098869,-0.01681491546332836,0.1813846230506897,-0.16924571990966797,-0.003859882475808263,0.028007257729768753,0.07288727909326553,-0.037168554961681366,-0.1471102237701416,-0.08808765560388565,0.06273479014635086,-0.16166430711746216,0.006071453448385,-0.15544933080673218,0.09574858844280243,-0.0015578692546114326,0.006970514077693224,0.1364743411540985,-0.16435691714286804,-0.029481861740350723,-0.035672031342983246,0.18346530199050903,0.0881909728050232,-0.17411018908023834,-0.06173073500394821,-0.13643911480903625,0.19385626912117004,-0.018493294715881348,-0.22350910305976868,0.07142622768878937,0.2570069432258606,0.020871248096227646,-0.06906101852655411,-0.10260377079248428,-0.0462363176047802,-0.003927177749574184,0.10678736120462418,-0.17898564040660858,0.01954275369644165,0.003939372021704912,0.19034694135189056,0.1816769391298294,-0.03464749827980995,-0.12985821068286896,0.23489798605442047,-0.06038392707705498,-0.11079665273427963,0.11430250108242035,-0.1067001223564148,-0.08134810626506805,0.1092987060546875,0.17667479813098907,0.14138798415660858,-0.20217502117156982,0.15199562907218933,-0.0004449411353562027,-0.05806051194667816,-0.0031035083811730146,-0.10416487604379654,-0.18702179193496704,-0.17917019128799438,-0.081927090883255,0.20222149789333344,-0.025304479524493217,-0.06829632073640823,-0.0892125815153122,0.05571971833705902,-0.13153351843357086,0.0944148451089859,0.18376551568508148],[0.1319006234407425,0.09980615973472595,-0.08677803725004196,-0.0289984792470932,-0.016718320548534393,-0.11121459305286407,-0.15502192080020905,-0.010172469541430473,0.04208065941929817,-0.006702996324747801,-0.033829424530267715,-0.18933983147144318,-0.12447110563516617,0.0833360105752945,0.0001362195034744218,0.1368383765220642,-0.07285605370998383,-0.1303108185529709,-0.017911948263645172,-0.12697024643421173,-0.12658387422561646,-0.004267254378646612,-0.07230717688798904,0.09387610107660294,-0.14003434777259827,-0.017076704651117325,0.13530318439006805,0.20600314438343048,-0.2086620032787323,0.08650121092796326,-0.06537041813135147,0.10202839225530624,0.03341297805309296,-0.019092394039034843,-0.05720199644565582,0.096573106944561,0.12745627760887146,-0.04968702420592308,0.1461014747619629,0.10434182733297348,0.0036704365629702806,0.16635078191757202,0.13797210156917572,-0.046017490327358246,0.02991466037929058,-0.002856816165149212,0.12003901600837708,-0.16493751108646393,0.052631404250860214,-0.18554075062274933,0.11667855829000473,0.10606664419174194,0.03535426780581474,-0.1049315333366394,-0.029607882723212242,0.009531666524708271,-0.08940079063177109,-0.12311923503875732,-0.055439628660678864,-0.14750559628009796,-0.04156109690666199,0.10817719995975494,0.1122923269867897,-0.0076551735401153564,-0.1339389979839325,0.17016471922397614,-0.04562477767467499,0.02974102646112442,0.08160043507814407,0.049068108201026917,0.19565671682357788,0.16321055591106415,0.06523153930902481,-0.08073403686285019,-0.05365363880991936,-0.07464838773012161,-0.010038495063781738,0.004310758784413338,-0.17772436141967773,0.047098010778427124,-0.20313255488872528,0.12097184360027313,-0.11011725664138794,0.03357643634080887,0.106682188808918,0.01984117180109024,0.11840028315782547,-0.1758761703968048,0.07990812510251999,0.000297409511404112,0.07610829174518585,-0.04279147833585739,-0.05174756422638893,0.13999956846237183,0.14208173751831055,0.12395145744085312,0.19197772443294525,0.049494992941617966,0.10206956416368484,0.1917898952960968],[-0.026799622923135757,0.027534378692507744,0.09505495429039001,-0.08971408754587173,0.016347268596291542,0.1682780385017395,0.11168362200260162,0.2270725667476654,0.0959501564502716,0.15395119786262512,-0.08268380165100098,-0.03781690075993538,-0.005540907382965088,-0.15899568796157837,0.17665217816829681,0.17761445045471191,-0.0765102356672287,0.12247688323259354,0.018309595063328743,-0.09686020761728287,0.16199977695941925,-0.07630384713411331,0.2118983119726181,0.12751105427742004,-0.038670290261507034,-0.039994724094867706,-0.13309991359710693,0.11054391413927078,-0.06959813833236694,-0.06033617630600929,0.014102949760854244,-0.11640337109565735,-0.019794639199972153,0.044534046202898026,0.13131310045719147,-0.0768534317612648,0.1446797400712967,0.10976812243461609,0.09185757488012314,0.006663394160568714,0.25474733114242554,-0.08827913552522659,-0.03036247193813324,0.2461562305688858,0.07138623297214508,0.0911092758178711,0.01874927431344986,-0.09382398426532745,0.09965108335018158,0.10980543494224548,0.05439086630940437,-0.10015606135129929,-0.001359267975203693,-0.10360352694988251,-0.1868194192647934,-0.10609949380159378,0.12295103818178177,0.014703726395964622,-0.16516651213169098,-0.1775059998035431,-0.12945762276649475,0.04271089658141136,0.1739766150712967,0.13365960121154785,-0.01344759576022625,-0.05788516625761986,0.05561947077512741,-0.05264320597052574,0.08030712604522705,0.01767311803996563,0.0026618291158229113,0.12799710035324097,0.029114404693245888,0.15743783116340637,-0.0971035584807396,-0.091969795525074,-0.15267421305179596,0.045816391706466675,0.2219167798757553,0.14637495577335358,0.16289737820625305,-0.032016489654779434,0.13878057897090912,0.1569654941558838,-0.1533057987689972,0.012551093474030495,0.038905467838048935,-0.15243235230445862,0.08834730833768845,0.0911412313580513,0.12435753643512726,-0.07226632535457611,-0.1698334813117981,-0.005489886738359928,0.09405245631933212,0.18765810132026672,-0.14904086291790009,-0.14092986285686493,-0.024453381076455116,-0.04504331201314926],[-0.17129889130592346,0.008523891679942608,0.10945898294448853,0.3177829384803772,-0.027992727234959602,0.1378306895494461,-0.11382795870304108,-0.00894223339855671,-0.08686903119087219,-0.10952328145503998,-0.21831798553466797,-0.002368683461099863,0.16947577893733978,0.27095934748649597,0.2073153704404831,-0.24715565145015717,0.21184122562408447,0.07993064075708389,-0.19905206561088562,0.23268519341945648,0.14269892871379852,-0.0023093661293387413,-0.09559955447912216,0.1674688756465912,-0.014476818963885307,-0.08901358395814896,0.06212732940912247,0.1294972151517868,0.05663054436445236,-0.09727514535188675,-0.14610564708709717,-0.09510494023561478,-0.18126563727855682,-0.1997944563627243,0.047516118735075,0.11078240722417831,0.11059731990098953,-0.028179386630654335,0.19275499880313873,-0.23499898612499237,0.03538069128990173,-0.0909966453909874,-0.06133301183581352,0.2667563259601593,0.022024601697921753,-0.2156088650226593,0.05800486356019974,-0.026995675638318062,-0.034601230174303055,0.14095334708690643,-0.1909991055727005,0.022239191457629204,0.1234760731458664,-0.15713849663734436,-0.1611231565475464,-0.06908874958753586,0.27934694290161133,0.02485656924545765,-0.08659414947032928,0.24415652453899384,-0.09352253377437592,-0.051028069108724594,-0.1392703354358673,-0.01740792952477932,-0.06461436301469803,0.0812138095498085,-0.11697228997945786,-0.07862803339958191,-0.11147665977478027,-0.13814657926559448,-0.17350956797599792,0.005576955154538155,0.06390892714262009,0.2448582798242569,-0.03743555024266243,-0.07518428564071655,0.1805056631565094,-0.18874824047088623,0.17347504198551178,0.0932016372680664,-0.1628349870443344,-0.06884999573230743,-0.17429974675178528,0.09015584737062454,-0.1406629979610443,-0.21256515383720398,0.022630849853157997,0.1101549044251442,-0.06068402901291847,0.2512897551059723,-0.06393150240182877,0.11619891971349716,-0.1507975459098816,-0.09563243389129639,-0.12205111980438232,0.010034814476966858,-0.11253688484430313,0.1547907441854477,-0.25427448749542236,-0.1843174248933792],[0.0037547789979726076,0.20281782746315002,-0.1914730966091156,-0.062348622828722,-0.06579037755727768,0.14968650043010712,-0.1826266497373581,-0.11560124158859253,0.05475394427776337,0.08268742263317108,0.1923820823431015,-0.13681453466415405,0.11591310799121857,-0.08685341477394104,-0.1356988549232483,-0.17757008969783783,-0.02345973625779152,-0.1469774693250656,0.12840108573436737,0.08393866568803787,-0.028850572183728218,-0.09879686683416367,-0.038685984909534454,0.060946274548769,-0.13098745048046112,0.031802840530872345,-0.03108675591647625,-0.02222317084670067,0.1236618384718895,0.19536615908145905,0.15326836705207825,-0.03677583485841751,0.07052185386419296,-0.15828239917755127,0.25173017382621765,0.004633418750017881,0.18978506326675415,0.16294069588184357,-0.18606120347976685,-0.15817229449748993,0.28669312596321106,0.16727516055107117,-0.10273844003677368,-0.2065589874982834,0.07504630088806152,0.14595156908035278,-0.2528221607208252,-0.1513330489397049,-0.05614685267210007,-0.16515231132507324,-0.10886328667402267,0.06583498418331146,-0.20545554161071777,-0.040510568767786026,0.12560515105724335,-0.09382905811071396,0.1337333470582962,0.009804800152778625,-0.048139624297618866,-0.23762549459934235,0.16746003925800323,-0.031605783849954605,-0.14379443228244781,0.11978858709335327,-0.07789218425750732,-0.13360653817653656,0.02566971629858017,-0.13797175884246826,-0.20359459519386292,0.20339447259902954,0.14820635318756104,0.14024940133094788,-0.14746443927288055,0.0070848409086465836,0.11531383544206619,0.20705018937587738,-0.05580804497003555,0.1305866688489914,0.12438611686229706,-0.10007371008396149,-0.212163507938385,0.0031999261118471622,0.02830612286925316,-0.01204658392816782,-0.150756374001503,-0.10708306729793549,-0.0426844097673893,0.1743895411491394,-0.17522160708904266,0.0028867239598184824,0.09514395147562027,-0.1386372148990631,-0.03727411851286888,0.15584644675254822,0.05704299733042717,-0.15324506163597107,-0.19486774504184723,0.04085299372673035,0.06534185260534286,0.15284620225429535],[0.08892077207565308,-0.01514595840126276,0.10992830991744995,-0.09845671057701111,0.1485428810119629,-0.18040043115615845,-0.019950835034251213,-0.1862417608499527,-0.0352424681186676,0.19720295071601868,0.0051779779605567455,0.017798904329538345,0.18197272717952728,-0.013154445216059685,-0.20050130784511566,0.13812386989593506,-0.008293097838759422,-0.012002156116068363,0.07267463207244873,-0.2048342227935791,0.09559723734855652,0.009404381737112999,0.14460109174251556,-0.18320678174495697,-0.035221874713897705,-0.1837739646434784,-0.07619103789329529,0.05971381440758705,-0.17138494551181793,0.16575630009174347,-0.007599396165460348,0.11034523695707321,0.09897554665803909,0.0882691740989685,-0.10772509127855301,0.05027145892381668,-0.11001754552125931,-0.1366012543439865,0.038595154881477356,0.14893071353435516,0.15232177078723907,-0.08407063782215118,-0.020282059907913208,-0.1332193911075592,0.16507817804813385,-0.014257322996854782,0.11078518629074097,0.09136272221803665,0.13317036628723145,0.13596010208129883,0.18811443448066711,-0.07826673239469528,-0.13331234455108643,-0.022301824763417244,0.030866721644997597,-0.0018970093224197626,-0.0613940954208374,0.07815525680780411,0.23097704350948334,0.04836730286478996,-0.14631842076778412,0.1831205189228058,0.20277753472328186,-0.0775783360004425,0.09510364383459091,0.14125889539718628,-0.1825493425130844,0.16100715100765228,-0.12816260755062103,-0.04774707183241844,-0.06058429554104805,0.1133091077208519,-0.1261860877275467,0.039359692484140396,0.014143535867333412,0.1286144107580185,-0.10231465846300125,0.1560216099023819,0.015774695202708244,0.015342450700700283,-0.20428986847400665,0.23838680982589722,-0.15877002477645874,0.13392086327075958,0.25704896450042725,0.051632702350616455,0.14482353627681732,0.003958567511290312,0.21194462478160858,-0.0034962929785251617,-0.05690281093120575,-0.08377205580472946,-0.07134142518043518,0.08458306640386581,0.1595282405614853,0.1683281809091568,-0.1810765415430069,-0.22935347259044647,0.1857215166091919,0.12480705976486206],[-0.16224409639835358,-0.06661582738161087,0.019227052107453346,-0.1178666204214096,0.22955742478370667,-0.05908344313502312,-0.20663383603096008,0.16262516379356384,0.11043810099363327,-0.14214660227298737,0.2195933312177658,0.08031462132930756,0.2864060699939728,-0.09457497298717499,0.0510452538728714,-0.01305173896253109,-0.05866389349102974,0.006251568906009197,-0.035848218947649,-0.14107899367809296,0.12705594301223755,0.006794442422688007,-0.07769645750522614,-0.11964362114667892,-0.056917063891887665,0.2374606728553772,-0.17620119452476501,0.08402454107999802,0.022918958216905594,-0.1496090292930603,0.033590056002140045,0.13605456054210663,-0.006948566064238548,0.12746089696884155,-0.10528705269098282,-0.06520618498325348,0.15005330741405487,0.06783828139305115,0.0723540186882019,-0.02045482024550438,0.005378226283937693,-0.16992096602916718,0.06459100544452667,-0.02171584777534008,0.1900632530450821,0.08110623061656952,-0.18875430524349213,-0.09709516912698746,0.02627347782254219,-0.05514293164014816,-0.017300894483923912,0.07672736048698425,0.16004838049411774,-0.14168812334537506,0.08574706315994263,0.04027803987264633,-0.13333725929260254,0.10226675868034363,-0.1397412270307541,0.00044695279211737216,0.1934485286474228,0.17315706610679626,0.13060085475444794,-0.10098787397146225,0.1480429768562317,-0.0019570407457649708,0.0929219052195549,-0.12650181353092194,0.06834330409765244,-0.058556608855724335,-0.24780261516571045,0.17423877120018005,-0.10822444409132004,0.08759501576423645,0.0716518685221672,0.0610349103808403,-0.03143361583352089,-0.051296647638082504,0.05993688106536865,0.03182107210159302,-0.08436121046543121,0.08803161233663559,0.05970986932516098,0.07366327196359634,0.03399098291993141,-0.192430779337883,0.07519399374723434,0.15157225728034973,-0.13410870730876923,-0.2657345235347748,-0.14986059069633484,-0.05908232182264328,-0.13825175166130066,0.0989919900894165,-0.14700070023536682,-0.020930210128426552,-0.12382038682699203,-0.013884124346077442,-0.007282876875251532,0.03160931542515755],[0.14177660644054413,0.2453373223543167,0.13382737338542938,-0.033161621540784836,-0.29983752965927124,0.22433413565158844,0.29259172081947327,0.03816410154104233,0.11457996815443039,-0.19384771585464478,0.208069309592247,-0.10273203998804092,-0.026650913059711456,-0.18279004096984863,-0.038378164172172546,0.17294670641422272,-0.16182245314121246,-0.07038506120443344,-0.15443140268325806,-0.26246973872184753,-0.21823109686374664,0.09445590525865555,0.20035509765148163,-0.22664828598499298,-0.052888981997966766,-0.28429532051086426,0.12069534510374069,-0.17699328064918518,0.12670935690402985,0.10653717070817947,0.17384809255599976,-0.022443024441599846,0.030806757509708405,0.22552065551280975,0.20447289943695068,-0.2543683648109436,-0.09085047990083694,-0.2239789068698883,-0.22426356375217438,0.08974362164735794,-0.004235065542161465,-0.19319532811641693,0.1095280796289444,-0.04494214430451393,0.2020443081855774,0.03347945213317871,0.05136076360940933,0.23304083943367004,-0.13754421472549438,0.0312969945371151,0.29888904094696045,-0.07977164536714554,-0.12783117592334747,0.051610786467790604,0.03673006221652031,-0.2713274359703064,0.1649608165025711,-0.20284239947795868,0.18372498452663422,-0.19025608897209167,0.11109583079814911,0.22670046985149384,0.07871944457292557,-0.07239998131990433,-0.1792229562997818,0.36386629939079285,0.11978433281183243,0.08649677038192749,0.03599974885582924,-0.15020020306110382,-0.02792072296142578,-0.206381693482399,0.16484259068965912,-0.2721295952796936,-0.18750950694084167,-0.0270015150308609,-0.3622071146965027,0.04052333906292915,0.0472148172557354,0.22529010474681854,-0.07660596817731857,0.006552006583660841,0.10681115090847015,-0.0577700212597847,0.14270244538784027,0.030866116285324097,0.26271453499794006,0.17732861638069153,-0.0680222287774086,-0.09082204848527908,-0.27733907103538513,-0.2519393563270569,-0.12636959552764893,-0.1105416938662529,0.08727116882801056,0.2740940749645233,-0.275350421667099,-0.4462941288948059,0.06204105541110039,-0.167867049574852],[-0.18707707524299622,-0.09379259496927261,0.10956733673810959,0.1183193251490593,0.09743068367242813,0.24085213243961334,-0.22558441758155823,-0.03736954182386398,0.1304362416267395,-0.03975072503089905,0.10670004040002823,0.09869633615016937,0.07969982922077179,-0.10003676265478134,0.08130760490894318,-0.16822075843811035,-0.14624029397964478,0.09361355006694794,0.202307790517807,0.10835210233926773,-0.1655237376689911,0.13059481978416443,0.04363139346241951,0.07590801268815994,-0.07819990813732147,-0.13484378159046173,-0.1810275912284851,-0.03820843622088432,0.0507994219660759,-0.11866796016693115,0.06953976303339005,-0.24446970224380493,0.3325541913509369,-0.08017872273921967,0.17976132035255432,-0.05396401509642601,0.11282064020633698,-0.1908891499042511,-0.0879727229475975,-0.04083634540438652,0.14069433510303497,-0.07034310698509216,0.12621334195137024,-0.0043322076089680195,-0.004827400203794241,-0.0015116854337975383,0.02451755665242672,0.03463203087449074,-0.06386168301105499,-0.12371935695409775,-0.061602767556905746,-0.08214087039232254,-0.02781267836689949,0.009843246079981327,-0.07900282740592957,-0.08169335871934891,-0.006046946160495281,0.07985714823007584,0.05855529382824898,-0.14619386196136475,0.07939904928207397,-0.10978449881076813,-0.055737193673849106,-0.10714566707611084,-0.19135339558124542,-0.18205487728118896,-0.16643746197223663,0.07278042286634445,-0.18309621512889862,-0.07046487927436829,0.1567758470773697,-0.06673658639192581,-0.006578532047569752,-0.14035603404045105,0.14677825570106506,0.06351368129253387,-0.016331754624843597,-0.12479016184806824,0.2052190899848938,0.1862775683403015,-0.02272108942270279,0.12886391580104828,-0.07025972753763199,0.019386200234293938,-0.03664224222302437,0.04260062798857689,0.0093204565346241,0.14748907089233398,0.163260355591774,-0.2025294303894043,-0.15481452643871307,0.10244075208902359,-0.14973661303520203,0.15323376655578613,-0.10834895074367523,-0.07389216125011444,-0.14054924249649048,-0.015715831890702248,0.03476041927933693,0.25636106729507446],[0.058526571840047836,0.039520904421806335,-0.1649140566587448,-0.027332400903105736,-0.08740173280239105,-0.21233981847763062,-0.13850900530815125,-0.11881134659051895,-0.03126716613769531,0.05094965174794197,0.19906295835971832,-0.16455335915088654,-0.15198279917240143,-0.07076235860586166,-0.13797248899936676,0.12805034220218658,-0.02211449295282364,-0.16470523178577423,-0.032086119055747986,-0.07783884555101395,-0.1947091519832611,-0.17634113132953644,0.2046089917421341,-0.1058037206530571,-0.14510640501976013,0.01635168120265007,0.11651929467916489,0.07635625451803207,-0.000731144449673593,-0.06427823752164841,-0.09525042772293091,-0.004019719548523426,-0.05383547395467758,-0.12930908799171448,0.15944290161132812,-0.06876160949468613,-0.12672369182109833,-0.07682249695062637,0.18715520203113556,0.018967902287840843,-0.15098939836025238,0.01172583643347025,0.04314573481678963,0.13213923573493958,0.12858587503433228,0.21768736839294434,-0.17191778123378754,0.1523377001285553,-0.00618166895583272,-0.15148623287677765,0.0931125059723854,-0.1204490214586258,-0.1427198201417923,0.007550041191279888,-0.032752443104982376,0.041649214923381805,0.03685103729367256,0.010345090180635452,0.04058536887168884,-0.18891794979572296,-0.18442241847515106,0.15902025997638702,0.05927915871143341,0.12782177329063416,-0.15878355503082275,0.1447323113679886,0.0226842500269413,0.019617483019828796,0.2191564440727234,-0.17462852597236633,0.19263955950737,0.13684536516666412,-0.181578129529953,-0.0103683453053236,0.13451141119003296,0.025147615000605583,0.08120676875114441,-0.009148686192929745,-0.05717780068516731,-0.17360591888427734,0.06032830849289894,0.03706858679652214,-0.12053678184747696,0.004344969987869263,0.22872012853622437,-0.09031260758638382,0.031931038945913315,0.06746577471494675,0.0398307703435421,0.004392038565129042,-0.11610596626996994,-0.05079074576497078,-0.07338781654834747,0.1659296154975891,0.20357747375965118,-0.03519003465771675,0.03207558020949364,0.08194268494844437,0.19399911165237427,-0.13155081868171692],[0.09873178601264954,0.14801055192947388,0.08648265153169632,0.022501064464449883,-0.04924456775188446,0.003798514371737838,-0.03620656579732895,0.07745373994112015,0.08851214498281479,0.19131940603256226,0.16786661744117737,0.13384929299354553,0.1530768722295761,0.1271599531173706,0.0159748587757349,0.13295722007751465,-0.13669559359550476,-0.0583268366754055,-0.12941767275333405,0.005995821673423052,0.15447309613227844,-0.1926759034395218,0.18565014004707336,-0.1782708466053009,-0.19005466997623444,-0.02716623991727829,0.19313251972198486,0.11801816523075104,0.029066074639558792,0.15106864273548126,-0.01445726491510868,-0.0639011561870575,-0.04674023017287254,-0.0284225195646286,-0.046580951660871506,-0.051771778613328934,-0.005195559002459049,-0.018822086974978447,-0.1608065664768219,0.10443633794784546,0.08895532041788101,-0.06043148785829544,0.04789075627923012,0.12024194747209549,-0.20155569911003113,0.08555862307548523,0.06066186726093292,0.08558405190706253,-0.15886977314949036,0.10231325030326843,-0.07967313379049301,-0.08214264363050461,-0.16621904075145721,-0.06708605587482452,-0.12811343371868134,-0.0022198553197085857,0.11136724054813385,0.058069776743650436,-0.16300106048583984,0.04146091639995575,-0.18343165516853333,-0.07587285339832306,0.08038396388292313,-0.08104480057954788,0.052340567111968994,0.08651380240917206,0.16683080792427063,-0.036395855247974396,0.19264349341392517,0.15905466675758362,0.0002118666743626818,-0.07062088698148727,-0.11122776567935944,-0.15955939888954163,-0.18067288398742676,0.05028831586241722,-0.17758582532405853,0.10449106991291046,0.22450201213359833,-0.16283908486366272,0.09933333843946457,0.1538318246603012,0.17691026628017426,-0.07630487531423569,-0.14709779620170593,0.1539546698331833,-0.04090408235788345,-0.02053009159862995,0.07889305800199509,0.08002212643623352,0.042624831199645996,-0.06552980095148087,-0.12366088479757309,0.18499340116977692,-0.1118854358792305,0.09242065995931625,0.1390833556652069,0.15836720168590546,-0.120435930788517,-0.1341192126274109],[-0.20687054097652435,-0.006523863412439823,-0.07995559275150299,0.2492554783821106,-0.06279052793979645,-0.0003705558483488858,0.16154949367046356,0.16027653217315674,0.15133114159107208,0.14504240453243256,-0.01658758334815502,0.09488687664270401,0.24387606978416443,0.14283813536167145,0.11830686777830124,-0.05566346272826195,0.009125164709985256,0.22393597662448883,-0.08585578948259354,0.21252354979515076,-0.12551362812519073,0.08219171315431595,-0.09994733333587646,0.06618795543909073,-0.0826118215918541,-0.12059824168682098,0.06331469863653183,0.10880491137504578,0.15608364343643188,-0.15822915732860565,0.23515479266643524,-0.005051542539149523,-0.03102419711649418,0.13958525657653809,-0.20426857471466064,0.08802788704633713,-0.09824888408184052,-0.02232411317527294,0.00830515380948782,-0.04599665850400925,-0.026782076805830002,-0.19957390427589417,0.23821675777435303,0.0866752341389656,0.05237780138850212,0.15838047862052917,0.10330478101968765,-0.026061339303851128,0.06591329723596573,0.1107739582657814,0.061225391924381256,-0.0004872508579865098,0.015371539629995823,-0.011535349301993847,-0.005478670820593834,-0.05819545313715935,-0.05326908826828003,-0.002601736458018422,0.051485687494277954,0.08143015950918198,0.09535420686006546,-0.06807933002710342,-0.01069777924567461,-0.08272890001535416,0.2612227499485016,-0.22346538305282593,0.18740695714950562,0.08002807199954987,-0.1652764528989792,0.06966418772935867,0.020176397636532784,0.17587335407733917,0.2580251693725586,0.03837358206510544,0.00025266825105063617,0.08804921805858612,-0.06683484464883804,-0.10594936460256577,-0.012727129273116589,-0.04004952311515808,0.09493954479694366,-0.07902956753969193,0.19446632266044617,0.006980995647609234,-0.2407277375459671,-0.01096513494849205,0.20352210104465485,-0.04922228679060936,0.1319580078125,-0.058994658291339874,0.16940996050834656,0.045882511883974075,0.17465288937091827,0.028874559327960014,-0.03410593792796135,-0.09490605443716049,0.14952965080738068,0.022681329399347305,-0.23787762224674225,0.1793721467256546],[-0.223002627491951,-0.06617249548435211,0.149603009223938,0.19318757951259613,-0.10142169147729874,0.17441655695438385,-0.07215388119220734,0.12631191313266754,0.23098036646842957,-0.15714296698570251,-0.07956715673208237,-0.1081698089838028,0.16378198564052582,0.05324820056557655,-0.08629514276981354,0.12223697453737259,-0.01007640827447176,0.14018958806991577,-0.1493128091096878,-0.16364686191082,0.08108115941286087,0.1109086126089096,-0.008464179933071136,-0.17644916474819183,-0.19561490416526794,-0.20500341057777405,-0.04357387125492096,-0.19934241473674774,-0.11695323884487152,0.10669586807489395,0.08219006657600403,-0.24470822513103485,-0.02109593152999878,-0.2227851003408432,0.081930972635746,-0.04157211631536484,0.14161701500415802,-0.091495580971241,0.025567781180143356,-0.15605832636356354,0.09886440634727478,-0.13504616916179657,-0.06808486580848694,-0.06020617485046387,0.15136033296585083,-0.03768928721547127,0.09808319061994553,-0.12815573811531067,-0.1725788712501526,-0.11226135492324829,-0.05719200149178505,-0.07022523880004883,-0.10085296630859375,0.05735041946172714,-0.09267879277467728,-0.09323626756668091,-0.09413312375545502,-0.17248648405075073,-0.2373054027557373,-0.24818992614746094,0.2329043745994568,-0.19299672544002533,-0.14315778017044067,0.029425308108329773,-0.19405516982078552,-0.20237676799297333,0.09131772071123123,-0.1720893383026123,-0.17906618118286133,0.2158125638961792,-0.18567180633544922,-0.07818277925252914,-0.1385861486196518,0.1686275601387024,0.1865638941526413,-0.047375280410051346,0.20164622366428375,-0.045906033366918564,0.0940769761800766,-0.11754602193832397,-0.16939127445220947,-0.017712317407131195,-0.16154615581035614,-0.10491820424795151,-0.06518290191888809,-0.11472492665052414,0.009149037301540375,-0.033420104533433914,-0.11490371823310852,0.05961129069328308,-0.17436377704143524,0.11516231298446655,-0.02038572169840336,-0.15251018106937408,-0.12305876612663269,0.15145640075206757,0.08257382363080978,-0.1064925417304039,-0.197922483086586,0.21707011759281158],[-0.009522948414087296,0.01204027608036995,-0.1300087720155716,-0.11989393085241318,-0.07838242501020432,0.06180262938141823,-0.07019717246294022,-0.13743658363819122,-0.013943441212177277,0.22062022984027863,-0.05019417405128479,-0.06880617141723633,0.12714947760105133,0.09547076374292374,0.047640636563301086,0.08703851699829102,0.021677523851394653,0.07197374105453491,0.13761183619499207,-0.19133113324642181,0.007290608249604702,-0.12077858299016953,-0.01743253320455551,-0.16704341769218445,0.19951172173023224,-0.09494336694478989,-0.19068512320518494,0.2079494744539261,0.05150454863905907,-0.016852939501404762,0.041143711656332016,0.0877300351858139,0.16572564840316772,0.02315027080476284,-0.01066641602665186,0.19936411082744598,-0.017097510397434235,-0.14752767980098724,0.06821488589048386,-0.09707235544919968,-0.04814589396119118,-0.18770338594913483,0.17033332586288452,-0.17743368446826935,0.03809589520096779,-0.1375563144683838,-0.20860998332500458,0.08603579550981522,0.18064235150814056,-0.07398824393749237,0.11976771056652069,-0.1200772151350975,-0.05901068076491356,-0.04534554481506348,-0.08745678514242172,-0.16922815144062042,-0.08565090596675873,-0.08173738420009613,-0.10942251235246658,-0.053974978625774384,0.12067008018493652,-0.13060817122459412,0.22451741993427277,0.14783456921577454,-0.17834562063217163,0.2371649444103241,-0.15813526511192322,0.1180637776851654,-0.09341680258512497,-0.06668324023485184,0.1360185146331787,0.1479441225528717,-0.1909344345331192,0.02139364928007126,-0.2043563425540924,0.12889647483825684,-0.033849917352199554,-0.07071184366941452,-0.06632701307535172,-0.18161776661872864,-0.13788878917694092,0.005983582232147455,-0.19352295994758606,0.16114312410354614,0.2016553431749344,0.08532968163490295,-0.09692710638046265,-0.012270702980458736,0.0055459244176745415,-0.130038321018219,-0.15524452924728394,-0.19219322502613068,0.09331296384334564,-0.14248749613761902,0.10441330075263977,0.042963527143001556,-0.1729401797056198,-0.012320123612880707,0.014602244831621647,0.039679430425167084],[-0.10836831480264664,0.14410042762756348,-0.0817437469959259,0.037955544888973236,0.168479323387146,0.13259698450565338,0.03670250624418259,-0.06121481955051422,0.17115208506584167,0.07262420654296875,-0.10366570204496384,-0.17723599076271057,-0.03572316840291023,-0.050202514976263046,-0.13955220580101013,0.19015496969223022,0.1678582727909088,-0.043265968561172485,-0.025693286210298538,-0.16431757807731628,-0.013964229263365269,-0.02288036234676838,0.06494995206594467,-0.14782977104187012,0.08315972238779068,0.08352206647396088,-0.12745283544063568,-0.0672609731554985,0.03823187202215195,-0.032515425235033035,0.18559107184410095,-0.056539829820394516,-0.07652996480464935,0.06221144273877144,-0.12065888196229935,-0.15659388899803162,-0.0813102051615715,-0.09876325726509094,0.15268954634666443,-0.0709773600101471,0.10379593819379807,-0.03443748503923416,0.0372568815946579,0.18457075953483582,-0.06315162032842636,0.12143496423959732,-0.09609398990869522,-0.13161273300647736,0.020328117534518242,-0.04009367153048515,-0.018483495339751244,-0.09249082207679749,0.056077368557453156,-0.07628032565116882,0.025262901559472084,-0.10831310600042343,0.04642890766263008,0.14335976541042328,-0.021558208391070366,-0.11407618969678879,-0.06772003322839737,0.15784020721912384,0.09695380181074142,-0.16880612075328827,0.032075751572847366,0.0018697192426770926,-0.14507733285427094,-0.106301449239254,0.19809742271900177,-0.13454103469848633,-0.1923602819442749,0.11699090152978897,0.10342428088188171,0.09878240525722504,-0.20469461381435394,-0.0574873685836792,-0.07667426019906998,0.12354021519422531,-0.12823723256587982,-0.04491780698299408,-0.043174080550670624,0.002906129928305745,0.24817028641700745,0.15069831907749176,0.160382479429245,-0.21010036766529083,0.0870673730969429,0.1268293559551239,0.0944834053516388,-0.06135180965065956,0.22138763964176178,-0.09994499385356903,-0.17290030419826508,0.07366294413805008,0.17177970707416534,-0.03332025185227394,-0.016800273209810257,-0.14285211265087128,-0.11507092416286469,0.08707110583782196],[-0.21260951459407806,0.02797543816268444,0.038465701043605804,0.1508205085992813,0.08928366005420685,0.1169685646891594,-0.1302708387374878,0.1786830872297287,-0.034172702580690384,-0.15365710854530334,-0.09749084711074829,0.11502909660339355,-0.0031163061503320932,0.0041055926121771336,-0.07845789194107056,0.031958140432834625,0.004404476378113031,0.18965797126293182,-0.12438897043466568,-0.14278466999530792,-0.23565968871116638,-0.20898525416851044,-0.11889772862195969,-0.2651423513889313,-0.09558020532131195,0.006181847304105759,-0.1310928463935852,0.041126854717731476,0.101408451795578,0.1427711397409439,0.2950621545314789,0.021225184202194214,0.01180168054997921,-0.07872689515352249,-0.20056523382663727,-0.10395947843790054,0.13917726278305054,-0.07949165999889374,-0.060570016503334045,-0.05062618479132652,-0.12600888311862946,0.03612003102898598,0.03150014951825142,0.16958239674568176,-0.09498279541730881,0.12778814136981964,0.12235316634178162,-0.055996667593717575,0.14349353313446045,-0.1804381161928177,-0.07883661985397339,-0.045102667063474655,0.006265944801270962,-0.17512516677379608,-0.09170272201299667,0.11367454379796982,0.14058144390583038,0.010052996687591076,0.11308223754167557,-0.16932451725006104,0.15683363378047943,-0.09414950013160706,0.09108058363199234,-0.020688770338892937,-0.025304565206170082,0.10811202973127365,0.1343422830104828,0.20785696804523468,0.14670860767364502,-0.18327561020851135,-0.128146231174469,-0.00967831164598465,0.18715400993824005,0.14571243524551392,-0.13867391645908356,0.09742956608533859,0.167557030916214,0.18147297203540802,-0.20513099431991577,0.17725993692874908,-0.1886720210313797,0.010495723225176334,0.2282872051000595,-0.033779509365558624,-0.1732098013162613,0.10101307183504105,0.05789254978299141,-0.09003190696239471,0.02259625494480133,-0.0902981385588646,0.1213313490152359,-0.1934705674648285,-0.0358673632144928,-0.009673470631241798,0.06791715323925018,-0.18175311386585236,-0.20629580318927765,-0.052559129893779755,-0.19073358178138733,0.20094376802444458],[-0.19312423467636108,0.15412090718746185,0.12216123193502426,0.08515273779630661,-0.13009227812290192,-0.04216781631112099,-0.138231098651886,-0.05879064276814461,-0.051552191376686096,0.10504969954490662,-0.018290681764483452,0.1278374195098877,0.136000856757164,-0.1415635645389557,-0.08844069391489029,-0.18260473012924194,-0.15774045884609222,-0.15908218920230865,0.1298721432685852,-0.12964589893817902,-0.0004970924346707761,0.05149177834391594,-0.14889462292194366,0.02571609616279602,0.10559433698654175,0.03399201110005379,0.10496681928634644,-0.17722947895526886,-0.07129091769456863,0.2025979608297348,0.28128260374069214,-0.20991061627864838,0.19661858677864075,-0.10087598115205765,-0.10940141975879669,-0.15872585773468018,0.2123878449201584,0.10669796913862228,-0.08718719333410263,0.16761897504329681,0.13813576102256775,-0.13947145640850067,-0.10941697657108307,-0.005482702050358057,0.13331156969070435,0.189956396818161,-0.11448129266500473,-0.156832754611969,0.039081230759620667,0.12604743242263794,0.01220124214887619,0.172109916806221,0.0072023021057248116,-0.1065472885966301,0.019743425771594048,-0.2009565383195877,-0.1040722131729126,0.15886640548706055,-0.16229605674743652,-0.05310159921646118,0.22506234049797058,0.06678555905818939,-0.15156270563602448,0.11347196251153946,0.040867988020181656,-0.16124995052814484,0.06995608657598495,-0.12136045843362808,0.15945300459861755,0.07367640733718872,0.09459271281957626,0.060865070670843124,0.07649808377027512,-0.188398540019989,0.22129441797733307,0.18631292879581451,0.08744075149297714,-0.13340573012828827,-0.07850685715675354,-0.003322032280266285,-0.12050003558397293,0.21853795647621155,0.096992626786232,0.14746639132499695,-0.03707677870988846,0.25847336649894714,-0.0461517870426178,0.011881820857524872,-0.013718058355152607,-0.05046176537871361,0.1308879554271698,0.07212956249713898,0.1169891431927681,0.0009276291821151972,0.07969925552606583,0.01216806098818779,-0.07603468000888824,0.07890205085277557,-0.11173317581415176,-0.0045450725592672825],[-0.049940939992666245,-0.07719578593969345,0.16152478754520416,0.2041514664888382,-0.18540313839912415,0.11759869009256363,0.11306458711624146,-0.16974478960037231,-0.00045224986388348043,-0.10708657652139664,-0.021828239783644676,-0.015906071290373802,0.10118161141872406,0.08109913021326065,-0.0661117359995842,0.14818519353866577,0.0002317967009730637,0.21026788651943207,0.04871338605880737,-0.05238628387451172,-0.06706567853689194,0.01896824687719345,-0.0694819986820221,0.007039925083518028,0.046534422785043716,-0.10692093521356583,-0.01434819120913744,0.04328231140971184,-0.029642784968018532,0.10623274743556976,0.1723661571741104,0.09096521139144897,-0.041566651314496994,0.17404502630233765,-0.04708143696188927,-0.11417543888092041,0.06349312514066696,-0.006274164654314518,-0.00646757148206234,0.021386293694376945,0.01326183881610632,-0.009700634516775608,0.13388100266456604,-0.13040968775749207,-0.17367547750473022,0.12011969834566116,-0.06510996073484421,-0.16583888232707977,0.014447617344558239,0.08752847462892532,0.09892114996910095,0.018948771059513092,0.025950325652956963,-0.059808000922203064,-0.04267626628279686,0.17825190722942352,0.037917282432317734,-0.19981934130191803,0.017809385433793068,-0.07126210629940033,0.015072979032993317,0.20396700501441956,0.17762121558189392,0.15097807347774506,-0.13909754157066345,0.19215571880340576,-0.08447802811861038,-0.2098553329706192,0.07827292382717133,-0.15164363384246826,0.050172675400972366,-0.1750761866569519,0.13491098582744598,-0.029069242998957634,-0.0430394671857357,0.03609137609601021,0.0633184090256691,-0.03559109568595886,0.07953275740146637,-0.20284444093704224,-0.10215220600366592,0.23544329404830933,-0.16426265239715576,-0.1850009262561798,0.23013252019882202,-0.1313246190547943,-0.029487820342183113,-0.11260345578193665,0.055666811764240265,0.14633364975452423,0.03696942701935768,-0.238738015294075,0.03888336196541786,0.12663808465003967,0.1165664941072464,0.01700166054069996,0.12563061714172363,0.04660333693027496,0.052481137216091156,0.09821616113185883],[0.10726270079612732,0.1553792506456375,0.011530531570315361,0.012963872402906418,0.18445786833763123,-0.010281451977789402,0.10247422009706497,-0.0750829204916954,0.02384372055530548,-0.0895199403166771,0.0402318499982357,0.0970359817147255,0.041439298540353775,-0.14756950736045837,-0.07966825366020203,0.062552809715271,0.16154441237449646,-0.12236446142196655,0.015553943812847137,0.1666494905948639,0.024546770378947258,0.018189994618296623,-0.09227364510297775,0.05365297570824623,-0.12500019371509552,-0.09848465025424957,0.029283763840794563,0.2020551711320877,-0.10662262886762619,-0.16594065725803375,-0.04984920099377632,0.11874119192361832,-0.17186801135540009,-0.01705687865614891,0.12692373991012573,-0.08840583264827728,-0.12246648967266083,-0.13904456794261932,0.013509895652532578,-0.03984992578625679,0.0711846873164177,0.034441545605659485,-0.14912129938602448,-0.10387419909238815,0.01142139732837677,0.13164202868938446,-0.023336136713624,0.13564398884773254,0.017208289355039597,-0.13966278731822968,-0.12342611700296402,0.11178135871887207,-0.206321120262146,0.029684387147426605,0.2171272337436676,0.13254894316196442,-0.020132090896368027,0.2408090978860855,-0.03483672812581062,0.2146119922399521,-0.01947799138724804,0.0049278042279183865,0.18038403987884521,-0.1675770878791809,0.029422765597701073,-0.05853848531842232,0.04644417390227318,0.1420697718858719,0.09452458471059799,-0.13311916589736938,-0.018715642392635345,0.19137944281101227,-0.04707658290863037,0.21813863515853882,-0.16500838100910187,0.1898924559354782,0.0037579077761620283,0.11369064450263977,-0.029127132147550583,0.09960504621267319,-0.15330952405929565,0.1530904322862625,0.22638043761253357,-0.02345692738890648,-0.17238131165504456,0.14642640948295593,-0.12042327225208282,-0.1298261284828186,0.01027241162955761,-0.07772990316152573,-0.08986031264066696,-0.1945599764585495,0.0410703644156456,0.0545591302216053,-0.07399763911962509,-0.048291243612766266,-0.028597373515367508,0.10502538830041885,0.17133189737796783,0.018655283376574516],[0.16572856903076172,0.09037806838750839,-0.05496612563729286,-0.17688272893428802,-0.10167733579874039,-0.04981064796447754,-0.16559432446956635,0.007018956821411848,-0.021718554198741913,-0.06486139446496964,-0.11451965570449829,0.09447271376848221,0.022814124822616577,-0.059819258749485016,-0.015210173092782497,0.04461461678147316,-0.017267128452658653,-0.10721764713525772,-0.03667265176773071,-0.17721375823020935,-0.06005115807056427,-0.0360870286822319,-0.007039039395749569,0.08259616792201996,-0.07280086725950241,-0.16207849979400635,0.09476079791784286,0.07247436791658401,0.02370837889611721,-0.11675134301185608,0.051970746368169785,0.0043573747389018536,-0.03306823968887329,-0.08212736248970032,-0.05960198864340782,-0.18781308829784393,-0.08313100785017014,0.06258440017700195,0.15668386220932007,0.020845789462327957,0.032582271844148636,-0.11223883926868439,-0.01592695526778698,-0.0016548705752938986,-0.00020235462579876184,0.07581301778554916,-0.07048755884170532,0.030416682362556458,0.04178731516003609,0.0573294535279274,-0.11451252549886703,0.1432569921016693,-0.04492984339594841,-0.041397254914045334,-0.0026229943614453077,-0.0909663587808609,0.10108500719070435,0.07690922170877457,-0.008113726042211056,0.03906732425093651,-0.1201215460896492,-0.1279035210609436,0.1348693072795868,0.07708238065242767,0.08962593972682953,0.12183773517608643,-0.03004886396229267,0.028916241601109505,0.14275586605072021,-0.1174483597278595,-0.015001707710325718,-0.02282300405204296,-0.008829046972095966,-0.12032294273376465,0.10588957369327545,0.08487401157617569,0.06322457641363144,0.09296754747629166,-0.0821564570069313,-0.009561262093484402,-0.09366945922374725,-0.11836561560630798,0.052425120025873184,-0.029739921912550926,0.07829798758029938,0.03078135848045349,0.15410937368869781,0.003037893446162343,0.16455574333667755,0.07407062500715256,-0.03023478202521801,0.19705761969089508,0.029330110177397728,-0.0988171175122261,0.03154647722840309,0.015192391350865364,-0.07987307012081146,0.12391849607229233,0.04668506234884262,0.15946631133556366],[0.06804777681827545,0.05044914782047272,-0.05192388594150543,-0.24094974994659424,-0.08405416458845139,-0.11233073472976685,-0.053382568061351776,-0.07104363292455673,-0.1606224775314331,-0.03837496414780617,0.022085852921009064,-0.08523325622081757,0.2002476304769516,0.3153659403324127,-0.26380082964897156,0.27352213859558105,0.023837657645344734,0.1960204839706421,-0.04973302781581879,0.1999203860759735,-0.16616478562355042,0.20839202404022217,-0.08938322216272354,0.1166805624961853,0.10968472808599472,0.20405012369155884,0.11227666586637497,-0.06338702142238617,0.2817505896091461,-0.18080264329910278,-0.011255491524934769,0.02400592900812626,-0.11383935064077377,0.19496391713619232,0.13970333337783813,-0.08224406093358994,-0.18561682105064392,-0.23574556410312653,-0.1646670699119568,-0.04971250146627426,0.04961632564663887,-0.04391030594706535,0.11988852173089981,-0.010530374944210052,0.18175022304058075,0.03852267563343048,0.10958772897720337,0.005644842982292175,0.21842513978481293,-0.057458192110061646,0.14591935276985168,0.043888092041015625,0.18008741736412048,0.08279900997877121,-0.09156762808561325,0.0558968260884285,0.04940367862582207,0.20462235808372498,0.036875296384096146,-0.09578873217105865,-0.052430033683776855,-0.13395582139492035,-0.1624082624912262,-0.04194609820842743,-0.03610537201166153,-0.10669732093811035,0.05725114420056343,-0.027158943936228752,-0.03286921605467796,0.11882345378398895,0.17650891840457916,-0.009376096539199352,0.13085366785526276,0.14283590018749237,-0.23343650996685028,0.025314783677458763,-0.03476591408252716,-0.1899677813053131,0.14432454109191895,0.05529608577489853,0.05079001933336258,0.09119357913732529,-0.04097801074385643,0.05099576711654663,-0.09958073496818542,0.014563153497874737,0.04784644767642021,0.27916544675827026,-0.03207740932703018,-0.004872513934969902,0.11081103980541229,0.0827970802783966,-0.025460071861743927,-0.10138043761253357,0.22168941795825958,0.173604354262352,-0.281316339969635,0.14549392461776733,-0.12045517563819885,-0.10291138291358948],[-0.04796965420246124,0.1726239174604416,0.1383088231086731,-0.002546238712966442,-0.08643493801355362,-0.16775262355804443,0.08352341502904892,-0.1558155119419098,0.031563036143779755,0.14900189638137817,-0.0036627857480198145,-0.18380895256996155,0.12227775156497955,-0.041735731065273285,-0.0013634589267894626,0.014582807198166847,-0.19231820106506348,-0.014270993880927563,0.004477447364479303,0.0012715795310214162,0.08350562304258347,-0.04128092899918556,0.12330290675163269,-0.2291363626718521,0.13352034986019135,0.016307171434164047,-0.012692940421402454,0.2194928675889969,0.1439099758863449,-0.09219634532928467,0.04075394198298454,0.20919160544872284,0.009094531647861004,-0.01548497099429369,-0.045134469866752625,-0.13654546439647675,-0.04612957313656807,-0.0843091756105423,0.11351730674505234,0.00046729351743124425,0.1449858546257019,-0.03465347737073898,-0.022572454065084457,-0.15115313231945038,-0.04107572138309479,-0.18142563104629517,-0.00034853097167797387,-0.027192115783691406,-0.04745785892009735,-0.12916365265846252,0.031291600316762924,-0.11696021258831024,0.06899752467870712,0.11692163348197937,-0.03407169133424759,-0.18580685555934906,0.061051707714796066,-0.20157639682292938,0.23519450426101685,-0.1709575057029724,0.10638028383255005,0.20020116865634918,0.17321926355361938,0.012691746465861797,-0.05870979279279709,0.12265458703041077,-0.04035810008645058,-0.017123032361268997,0.12845061719417572,-0.09882369637489319,